1/1/1/1/1/1/1/1/1/1/1/1/1*
768724,063929857/-0,714716952161266/768723,829901996/0,0737084378831594/-0,408789437920223/768724,823491949/768723,714939689/768724,858492858/0,325064343086008/-0,108636072421743/0,116423666065756/-0,923095568978738/-0,103632642470129*1780469,62558193/0,718710402827109/1780470,71078207/0,35451754338784/-0,339050747146388/1780470,46986629/1780470,51354674/1780469,76199072/-0,629663289352163/-0,0882640132160224/-0,299848869116906/0,550439736596513/0,301030357042807*1391665,76505334/-0,0497047952607762/1391666,52383583/-0,0751240547164921/-0,41858995678769/1391665,60201302/1391666,47812022/1391665,53370382/-0,875382854545202/-0,263431838370595/0,40348266689269/0,513041415025034/-0,140643506842034*521480,398801926/-0,477137885744282/521480,482242686/0,922397515700384/-0,508644344987648/521479,457545921/521480,6763707/521480,554859447/0,214896062954746/-0,853566888651609/-0,689318439778554/-0,383798152852709/0,589099841001024*4079514,1538848/-0,712546502106146/4079514,12107668/-0,799085483792743/0,373547061054756/4079514,92598565/4079514,81218212/4079514,57909362/-0,252030056552976/0,27196585446222/-0,975811641652049/-0,5998116021975/-0,690046115634053*2095242,96012127/-0,219005828359633/2095242,80837416/-0,985538266592444/-0,0178577588022956/2095244,084297/2095244,10497679/2095244,06509342/0,484448335824743/-0,495818434979682/-0,306867991251344/-0,552060805052547/-0,579619668228375*-3147354,41776516/0,773956064029576/-3147352,91419946/0,367947312708919/-0,196137906609167/-3147353,52931308/-3147354,2515833/-3147353,56794719/0,554831675046511/0,008456761487041/0,519330587945567/0,923702629247542/0,363021100574648*245441,044630501/0,989772713738388/245440,847396357/-0,249055045307174/0,250896259793498/245440,836387369/245440,800429187/245439,45962184/0,861038285242877/-0,00451049907343015/0,110098916622856/0,20043432954719/0,164290870150687*-3957221,9331486/-0,225274281215516/-3957220,63552673/0,380523047121485/0,783271932873536/-3957222,28400256/-3957220,67005849/-3957221,46986709/0,494579997609639/0,74931263725707/0,64412226697622/0,380022630738105/-0,531896238928612*-4589487,07239341/-0,908485700333717/-4589486,74799378/0,141788933026506/0,772537410153326/-4589487,04009454/-4589487,97487835/-4589486,44651632/-0,945614088301367/0,851703414624419/-0,767583528425351/-0,266496618868083/0,25328530522682*48106,6630264553/-0,0742699229504308/48105,7670403077/-0,718546047675678/-0,221533436896994/48106,064020768/48105,6955747297/48107,1676329698/-0,458940907129525/0,533948379351733/0,204803120905907/-0,825691372074974/0,225184828613505*-1992694,03787236/-0,829272692012262/-1992695,00831732/-0,728169565893789/-0,759539923518682/-1992693,49311767/-1992694,04724937/-1992694,6353792/-0,435076748689207/0,430694818231601/-0,136241911508256/-0,280750647783629/0,222952090773243*-452693,067460366/0,109675225387176/-452691,606846639/-0,564500694891671/-0,0769776958399349/-452691,596925758/-452692,504996702/-452692,62202974/0,0040665497090977/-0,172754755789766/-0,285811831842089/0,213126045285317/-0,0291539258459368*-1990009,51782848/0,212509647576376/-1990009,79745919/-0,547815044199962/-0,442434079685451/-1990010,51315117/-1990009,65851142/-1990010,07863915/0,645243584944514/0,920031796172276/0,209266769331538/0,782555477592422/0,611243338143101*5348205,99050438/0,362581057177196/5348206,15363474/-0,429958542543444/0,495035258817969/5348207,05836241/5348207,24534653/5348207,23865641/-0,548596980771328/0,0578377577745532/-0,905598506287485/-0,894440212237854/-0,389073924808332*-491131,264391133/0,527288961935457/-491132,218905443/-0,623767220239978/0,343482063777504/-491131,218437441/-491131,855399255/-491131,644489642/-0,183109224393549/-0,841587323621655/0,954259960890869/-0,887261704489245/-0,126871102082949
382,86354820201/370,612940324297/393,766812563734/603,832295661114/542,796517790994/580,616584811762/402,440648019991/573,576848779177/472,948874360646/467,207696874329/375,979973646136/523,318255032544/419,698076785806/364,808479998993/483,651929579549/558,293829627108*-969,891963084248/-940,298855510824/-998,455488249798/-1528,29650736778/-1375,76659315843/-1469,53533134543/-1020,77462781566/-1451,29689034114/-1195,82525565101/-1182,63958952916/-951,858887758346/-1327,08739752921/-1062,32291069566/-925,711909113873/-1222,89099543474/-1413,24886183431*-277,752035733175/-270,017061711286/-287,002544763593/-438,242061666323/-393,648579216953/-420,437935490979/-292,643376188022/-415,319905451086/-343,327961238129/-338,418317013786/-271,736585902908/-380,803870441236/-304,974949645546/-264,487459005548/-349,674503814568/-404,619987117723*-937,356007041453/-907,958417975497/-964,098111399362/-1474,5811414081/-1327,35475032413/-1418,53138939955/-985,355919778788/-1401,3321429333/-1154,39359761874/-1141,16225319259/-917,828429203163/-1280,59469001491/-1025,95833399874/-893,172251889401/-1180,93205328552/-1364,13750868639*-1189,27412806346/-1151,78528004276/-1223,33967605661/-1872,70210817741/-1685,45764088158/-1799,47596432672/-1249,55381351038/-1776,67796958136/-1464,79826867665/-1448,65700052231/-1166,04345927283/-1625,97200486247/-1302,3513229835/-1134,51534667543/-1498,42670361424/-1729,79195855936*-1282,43832717168/-1242,66438746361/-1320,56299870368/-2021,07206703588/-1819,09011219246/-1942,53462858425/-1349,23283737394/-1918,83555239054/-1581,60542237549/-1563,43408499826/-1257,85337332543/-1754,14986702547/-1404,31114896044/-1223,52194788097/-1616,88491615314/-1867,90646524346*249,979818661586/242,158052585249/255,850477199366/393,747785651128/353,478107927265/377,722267304974/262,588686660227/373,17268145008/307,042664382193/303,873744644238/245,375013959225/341,522634200859/273,962869948151/237,092850313974/315,014446201384/363,108466191234*260,514133074023/252,652239599013/268,219041754441/409,960489691383/367,970164274835/393,650116756189/272,628617959573/389,175124509803/320,762455781449/317,792694081862/255,005549178059/354,727965391192/285,406093714012/247,118839602349/328,466113636452/377,818149297668
-11,0455680606456/0,0968027370902158/0,452958684181713/0,848002178477124/0,481229391317528/1,63752017631859/-11,023176658073/-10,038222476539*3,0522303488799/1,27655686394697/2,02088600011574/0,398555937880634/1,41555144119939/1,36951288124431/4,07979217750321/3,31464622300068*-11,1418118718531/0,922223302395385/1,71745301828299/1,23046069388301/0,65876606166195/1,40123684921968/-11,0073875476773/-11,4654689333373*-7,87158717812993/0,158361881058423/-0,613307450430534/-0,185828797423534/0,18515692447887/-0,304848457396294/-8,90590726845049/-9,03963190387546
-0,439429008594967/-1,16213178664941/-0,691071487471174/-0,0683710866006327
