System.Collections.Generic.List`1[System.Double]*
-8726,3071972974/-8727,26186100756/0,734969030986268/-8726,24369404378/-0,387075686246387/-8726,310990275/-8728,10977497474/0,652863025526045/0,0433729850986036/-8726,68035229015/-0,610536845833923/0,245520374681848/-8728,03778589916*-2671,8604135247/-2672,74674391538/0,16562822883114/-2672,15121694852/-0,0870031742276894/-2671,47380575692/-2671,94310243692/0,00289180929843436/0,544704658731795/-2671,53337078667/0,0832531042126944/-0,68256529261061/-2672,49074969521*-752,008893032457/-752,055175840567/0,0576690525219608/-751,478229636173/0,57075593915382/-752,697607549704/-752,600966074169/0,0296810415921632/-0,880976246561822/-751,249088490906/0,173476351776377/-0,382708050600138/-752,448865416664*-9033,5363641573/-9034,17606069615/-0,604136044802706/-9033,05788012493/-0,789833594396924/-9033,29981157545/-9033,88053104858/0,814138635807441/0,749801496777549/-9033,03066688888/0,0709101641263688/0,505076021275693/-9034,11623738581*6937,49579405256/6936,94238823021/0,746957256875828/6936,97179890059/0,451705657928384/6937,34524688737/6938,25349966198/-0,862823623934454/-0,32595029835481/6937,64676854534/-0,388539583119576/0,402416707976254/6938,56210462773*-12314,9007709142/-12316,1387774202/0,0293752015572027/-12315,837064024/-0,64015165898993/-12314,8750071298/-12316,6432709671/-0,780411889946728/-0,782184167831677/-12316,4454328698/-0,370577902290593/0,79955480039062/-12315,6193169993*10510,4238258274/10510,2357471158/-0,326551115626278/10510,2502979974/0,321634164882376/10510,8725283243/10509,027254442/-0,116391017450442/0,628554226091357/10509,173255855/0,322968028480399/0,867056663273117/10509,3393220822*-1240,37442324926/-1239,84300880616/-0,462386118774745/-1240,30440312699/0,715083442127181/-1239,12533059658/-1240,55045273633/-0,634970894693909/0,566114319477608/-1240,68505345988/-0,205579679306616/-0,252506176030223/-1239,49833114181*118,401738499326/118,601077177892/-0,522552733987575/117,897327434352/0,872445623758245/118,407959404867/117,77751411933/-0,777600753746416/0,080752985800294/117,500062721902/0,50675742892004/0,311212043384443/118,941459423978*-196,381839511028/-195,746986075559/-0,0607505456860779/-196,679582712929/-0,573179383409728/-195,275984963708/-195,840466941688/0,917370325340392/0,432604392562971/-195,862888560278/0,674916749162143/0,611145891221805/-196,32441448949*-2097,18931230243/-2096,59218604706/-0,152319077997323/-2096,03944643146/0,152063591549143/-2096,18332551125/-2097,40955531026/0,897725576763062/-0,10314410257581/-2097,18112132098/-0,57262787661511/0,0442135251127584/-2097,62398351868*-729,087582487546/-727,91647142582/-0,771806248841984/-727,839769909768/-0,107084490469674/-728,252246780392/-727,995742609364/-0,902498897175822/0,178684161225595/-728,163794593254/0,42290755953787/0,258735724784333/-727,489753672471*10422,6111911641/10423,1250401409/0,517765248083829/10423,2063039004/-0,821791912858584/10422,3195838515/10422,5066894619/0,187565912484205/-0,746405553823164/10422,5872346555/0,387554073179099/0,0997474836181329/10422,5815319252*-1955,65294310349/-1956,62058140308/0,719888148365878/-1955,5950958518/-0,614187007957472/-1956,77939578506/-1956,03331359128/-0,979513410735665/0,502012985044764/-1955,53709635552/0,702271254146901/0,982396294918781/-1957,05437890877*10418,3440378141/10418,0153287092/-0,412021214490054/10419,372558605/-0,672564375248281/10419,1467907142/10418,4484546075/0,355756406633737/-0,233291225206944/10418,7436805202/-0,590678600894845/0,239412424545249/10418,4081925034*8250,20060824775/8248,62142265604/0,241332816901775/8250,51935508328/-0,634799938771544/8249,39917091199/8248,92032839944/0,859550992998426/0,391579620913789/8249,19586681791/-0,607917905220575/0,48304836957462/8249,31356256052*-5540,70884662679/-5539,61845614507/0,783870927560648/-5540,01635806018/0,841265199865109/-5539,80576611336/-5539,91494512561/0,918164520634974/-0,862350996652515/-5540,93539780913/-0,374894687377669/-0,403794262047525/-5540,87829532993*-1354,00324436184/-1355,59745573244/0,673559254952078/-1355,05778257972/0,663516102073508/-1354,62382064522/-1355,46547180478/0,697360867394824/-0,128906859884868/-1354,74086789639/-0,191859798137883/0,5496182969183/-1354,5234262962*-7208,28593842026/-7207,531855748/-0,617529706934197/-7207,90326831955/0,698412080986043/-7208,95659350917/-7208,9591860096/0,584608550526202/-0,457895030276831/-7208,39589776557/0,586416700417966/0,188512393726631/-7207,96463454834*2183,38275405742/2184,31429552229/-0,217274130533241/2184,28985249554/0,430692126491463/2183,37842468594/2184,14199703898/0,639765228116506/-0,103845330075675/2182,8054108118/-0,792536753097416/-0,479725417656663/2183,75074687058*-1838,21554997056/-1838,28249196038/0,0267483613907955/-1839,26363210125/-0,210004060217476/-1838,31357995296/-1839,24812230119/-0,572433136405904/-0,0730564134414099/-1839,22433873647/0,531937708682125/-0,113231150076661/-1838,33326500985*-1267,12488816228/-1267,1518776545/0,13235553398839/-1266,14896041717/0,59712799093649/-1267,47071130572/-1265,85519096241/-0,528612566520667/-0,2964290031916/-1266,61488760664/-0,0643052038675329/0,36267688035255/-1265,77184169177*-9128,11219215033/-9128,13716265377/0,765876347251176/-9126,34959942832/0,60545673016723/-9128,13362733287/-9127,57913772483/-0,261424237428486/0,129142113777874/-9127,12211422373/-0,451809970023592/-0,478808214645177/-9126,35519298275*-3420,07686107284/-3419,54328478328/-0,230436759574258/-3419,00338025673/0,486809028370566/-3419,46171569537/-3420,06971865457/-0,53671826015922/-0,827839175876927/-3419,71703577712/-0,476058664502974/0,502285323170962/-3420,26066690096*5743,31427894229/5744,00635350962/-0,510566951916603/5743,55099242874/-0,928105050912345/5743,29639136834/5743,85455235547/0,0210404046179974/-0,235217344782995/5745,05037515331/-0,338250811285186/-0,037851548553544/5743,65639166302*5698,62253890912/5697,41566019876/-0,757361957891782/5698,57629414075/0,218131913987093/5697,85549697186/5698,15357634989/0,628003508415032/0,458253258475357/5697,83607093177/0,726988847310974/0,030524998999488/5698,74206741699*-2669,18913144197/-2670,15691295927/0,306172738929895/-2670,86173930025/0,215429022793192/-2669,64556140027/-2670,42376040012/0,183141407981433/-0,941997721757275/-2668,97327614177/-0,746979015534931/-0,230655691909178/-2669,76703824766*-4938,83114567954/-4937,42070728353/-0,0556566485877001/-4937,42147131721/0,300809389802134/-4939,17711654483/-4938,54949894339/0,0205313375046061/0,872302294123252/-4938,80152491539/-0,748929350186001/-0,121505610019609/-4937,5113350399*853,94359430632/852,617691763325/-0,195817197000208/852,674399331902/-0,714454614788507/852,782277920854/853,349004973208/-0,380520910014373/-0,602490304709923/853,947067223754/0,72476695911346/-0,258516166378054/852,662941964867*-2115,24363678661/-2116,16934767655/0,277629244153424/-2115,36078204823/-0,764478680626687/-2114,69171691354/-2116,12923832693/-0,919771053782241/-0,869062355899227/-2115,63471038895/-0,306389918061384/0,607932756413699/-2115,41365065646*-2805,8041396967/-2807,12933500537/-0,568920068031175/-2805,58508017541/-0,72795482957642/-2806,36097339224/-2806,26319349814/0,455279675778937/0,306293162178504/-2805,56224003725/-0,600195296998593/0,396508982463961/-2805,77097093706*-24,6940710974936/-24,7500085814379/-0,481911624814736/-26,1186361740082/0,93931192271029/-24,9477309995416/-25,0510189493583/-0,343924112323901/-0,316929608666311/-25,920752065754/0,754066401092211/-0,417959268654456/-25,9228914297233*686,980674128619/687,039691081077/0,704239574254713/688,520585466414/0,610694455536393/686,804043162906/687,763812091595/0,029682939558838/0,153262581766016/687,777525576319/-0,786846913417365/-0,420816241690351/688,38652071013*-5743,72674032814/-5742,81070321909/0,181555253030818/-5744,28218756479/-0,361299669867489/-5743,50591969514/-5742,48383880716/-0,408213390818387/-0,516770879094713/-5743,28786357097/0,577342341697399/-0,916320686984459/-5743,29953828846*700,683066313512/699,695083223588/-0,416424516234556/700,140794222031/-0,942006287373967/699,889574601998/700,466174375396/-0,967138045976414/-0,226489626145779/700,018536116016/0,777086521078395/0,498091059267202/699,463750927174*-1691,96939655834/-1691,93833859588/-0,371915930603356/-1691,9319656785/-0,612389361560357/-1691,96091726795/-1690,78357675493/-0,726352099902022/-0,440257886237006/-1690,7060086219/0,486762849543313/-0,415412099083443/-1690,64947260948*4193,33945528911/4193,14497563128/0,642942728511462/4194,27502256475/0,248694298432367/4192,57488204157/4194,20233259346/-0,493070333426683/-0,380464935075223/4193,04914570612/-0,549502313337372/-0,777648405075075/4193,47119821515*1118,75430081337/1118,53816719167/0,642629902160282/1119,13036793186/-0,221041391859454/1118,64718602084/1117,85014132091/-0,618523439297808/-0,421649839068069/1118,82656774039/0,99697341543102/-0,833766509388603/1117,98090105539*-1710,7719303693/-1711,44955990285/-0,173100084702532/-1711,12848661145/-0,0482709120626076/-1710,93440791075/-1711,68809022072/-0,543326128078958/0,814765147619305/-1711,4481282619/-0,598489235552619/-0,020097256777958/-1710,47241010764*-4159,66466144642/-4159,57971876493/0,768343446825552/-4159,65124006817/0,775307812549656/-4161,18171194537/-4161,2334012593/0,383837194565705/-0,219985046137458/-4161,14805140086/-0,331367313396344/-0,316279140056367/-4160,54678957706*2566,52499887672/2568,41559142845/0,237561934840177/2566,7526617603/0,113755253218163/2568,12142145058/2568,10586050909/-0,479628382023958/-0,181783757099205/2567,60801041716/0,709534180919351/0,717877447961004/2568,10956584002*4279,42687913696/4279,94282803864/-0,436436314467433/4279,80746104932/-0,263114899903936/4279,32677310164/4279,00691403845/0,202667837140788/0,720859202692777/4278,96070691389/-0,341931340386976/-0,0891217742650149/4279,92496317089*-7950,51740138589/-7952,29949590848/0,339350881839206/-7951,84897838497/-0,567071226672679/-7952,18833960698/-7952,10760294987/-0,827667150885503/0,0395370421338549/-7951,95005745516/0,249243070832909/0,533241271306497/-7950,85885339461*-10223,3409021698/-10222,7498663919/0,0469274367841298/-10223,210026284/-0,348829850946418/-10224,027414805/-10222,1010823057/-0,860294547904612/-0,186415768316396/-10223,8238331668/-0,139298510998149/0,0790430743182836/-10222,6186239664*1528,16987898402/1528,49953133882/0,587147038735525/1527,10143612365/0,136390030237665/1527,32385149878/1528,13690050546/0,294463265888111/0,823152404706456/1528,362438862/0,201130659699796/-0,666773137225561/1527,46325887718*3114,17643332864/3114,10240932576/0,458351434836479/3112,94225056563/0,474929244566405/3113,92883590663/3112,8156197835/0,237198073219895/-0,511294575030592/3114,22950647405/-0,825377381779943/-0,136176379373184/3112,842003355*-416,556512524627/-416,229537277361/0,661950588508738/-416,134411634556/0,807368639225842/-416,669748729942/-415,72840248938/-0,0185459007230956/-0,269450560474202/-416,671802477672/-0,391307752848714/-0,307436530696833/-415,882158217674*2959,20389905379/2958,66769503447/-0,805121863423727/2959,44573686233/0,743349506865592/2960,37754758262/2959,07044161444/0,950981155505795/-0,491189197112716/2959,04821918752/-0,30444192245186/-0,48230882104623/2959,31403910851*1568,19739346804/1567,52504469161/-0,776318540312377/1567,57320393051/-0,811687089711236/1568,02878526041/1568,12244850378/-0,0718485403493944/0,974892682420714/1567,11181933577/0,643910506355819/-0,185135834767036/1568,43403047433*-5817,53511647894/-5817,3457091302/0,709038359259763/-5817,43859950564/-0,0118312804633525/-5817,40495209326/-5816,63639295687/-0,797547245281226/-0,391566540343378/-5818,21610263713/0,0548827875774755/0,574231058012746/-5816,40349923475*-2619,13646167808/-2619,14593425655/-0,752195666440146/-2619,3732935499/-0,582541899574558/-2618,48787726631/-2618,95531891269/0,0322320413152197/-0,0885008214648526/-2618,93069192885/-0,221063201808697/0,796773607734635/-2619,15504593445*5248,41779254926/5248,39987695172/-0,645580921479652/5247,91148923229/0,688327118039806/5247,7561008939/5247,31373834837/0,948483238567342/0,134905691727301/5248,86376309122/-0,746621350452717/0,710976977128582/5248,74272383011*549,025118373072/548,072132892477/-0,394671615988466/548,153328350603/-0,115136247122837/548,34290564241/548,548407389854/-0,668479004444664/0,0646027808966302/548,385340352757/-0,288595452978932/0,906278569732343/547,266704800919*-1233,62345781151/-1233,98609329639/-0,258218482263296/-1232,49817945468/-0,626436487216042/-1233,35724902449/-1233,27829637998/-0,307680632407127/0,623824690036528/-1233,89521568999/0,860306555161056/0,903093695045691/-1233,95113832466*-8075,52097464683/-8074,56645100212/0,918525719044754/-8074,82371692753/-0,312109086958288/-8074,02342651548/-8075,63936491099/-0,110217843866631/0,120133778891883/-8074,39737351752/-0,522158322659775/0,962978944480398/-8074,34559924044*12590,8717737294/12589,6771424275/0,975544801913191/12589,4094869285/-0,960712839174951/12590,9000520232/12590,0655612121/0,625133906686624/0,879882609960608/12591,0735506263/0,206743249200475/0,344535648242285/12590,5333593821*-6959,43687156078/-6960,05726083028/-0,164233633363484/-6960,51305825357/-0,501122246409318/-6960,03833790773/-6959,68942066253/-0,481681048175938/-0,356250891756017/-6958,84105537628/-0,548495596017349/0,877473062633331/-6960,2418304038*-634,658116168138/-633,84851418426/0,161892903102751/-633,808641147199/-0,297009256255076/-635,064211688834/-633,508439013957/-0,275877888463801/0,314971185532309/-634,766435292753/-0,266400899396111/0,474002376971111/-634,976303198307*-840,044669480722/-839,174878822635/-0,263373179215742/-839,633844258671/0,668996469737338/-839,571691546253/-838,411450258354/0,410545045492859/-0,312821921472511/-838,559213412316/-0,927012505847131/-0,0990790321665887/-839,148634090785*-5898,94479459284/-5899,80581461175/0,137191723469306/-5899,7246907318/-0,463481639966363/-5899,1879618925/-5900,42575356748/0,536658394699453/-0,0562767456307239/-5899,39766023552/-0,527162729906353/-0,662548296700722/-5899,59512456296*-4528,7080372983/-4528,12773833333/-0,451633772251317/-4527,61999322039/-0,892176854906102/-4529,51483556079/-4528,85893836741/-0,878979986645441/-0,521313621096952/-4527,64998717208/0,801389163517137/-0,979570321330017/-4529,3733648825*-1930,4141045602/-1932,1470535892/0,0791600146271479/-1932,1605993733/0,813947340040396/-1931,07798701199/-1931,51875629228/0,596715608020905/-0,468139654403137/-1931,22400697832/0,589561361306708/-0,662509578469494/-1932,12238546299*-11523,6161293831/-11523,6384664193/-0,161660421094162/-11523,5526161077/0,79653998875661/-11524,5815790413/-11524,5401679204/-0,441681574797477/0,782590103732006/-11524,4690534671/-0,126327116396763/-0,303584742484242/-11523,2407269387*-4751,16286750645/-4752,99429455785/0,00850090512902162/-4751,83650919171/-0,0472004549245376/-4751,78334565256/-4752,16145471702/-0,702221473334632/0,757495979269928/-4752,84765244747/-0,530327361332824/-0,0563166640408904/-4751,61453483256
-2,26596143507053/-2,72008708236758/-2,19773158766764/-2,52427632276667/-2,85471846415647/-2,12832647412119/-3,8235454693345/-1,67695784343849/-2,43842374478357/-2,27044901661506/-3,7920201887077/-3,04836603480263/-4,17141103371708/-2,97600927069538/-3,31057323808573/-2,29996000263208/-3,85160129246063/-3,08316694069495/-1,86931614709715/-2,56196905567954/-1,62252305398891/-2,08153768889249/-2,09808661277575/-2,5577085060645/-2,41819239792314/-2,98315005077296/-2,72883698460371/-2,76256931406324/-3,06625188217548/-2,49322461539701/-3,15048916526383/-2,81704983452731/-2,93466219123124/-2,85538519664046/-3,18061892827889/-1,41667178797976/-2,46352843125785/-3,94668617541549/-2,82852027215878/-2,20333963268136/-3,66822887645649/-4,42737707824112/-1,07297017714435/-3,40391876829462/-2,56479926366376/-2,634221460766/-1,60031445306535/-1,35632963899133/-2,61013439354257/-2,58318412098649/-0,782877792946688/-3,04588363403539/-3,13645216784265/-2,88025285429831/-2,75631568585845/-3,78532455664621/-2,05244526713949/-3,04957986858835/-2,32143570626672/-3,95185328586154/-3,2564650348987/-1,85221194846298/-2,82327336061737/-2,53801498398472*1,37288029974988/1,38989108086982/0,210126498444221/0,608579908164938/0,684942381714439/-0,135819449964939/1,71193283305383/-0,397403967531795/-0,0914237775751596/-0,316914153794483/-0,061750731099153/0,194626908557777/1,61253373188144/0,751874317580839/1,25852429712027/1,05687475970712/0,280091229440348/0,889075594518292/0,718500726985157/1,70122102244566/-0,563753118009443/0,344721529739214/1,06620112995485/-0,269296478340703/0,86433581460694/1,53437908979692/-0,0653409096848379/0,0249960732137786/0,862654332318243/0,0849201160948205/0,248707533168278/1,10636175928248/1,46717572037493/-0,142063545405394/0,0206453511919666/0,964712264024145/-0,0616273766223967/0,670123352730644/0,183921737330928/0,841132628044281/0,928868776480943/1,21852729797431/-0,223602126052069/0,0369400208891987/1,6552811580765/0,798513015833154/-0,111630476713258/-0,151494267052791/0,924569200431083/-0,364657475005895/0,720213940192907/1,03400041842546/1,38359417105887/-0,0260621594974352/0,841131359544732/0,736319166691628/-0,25466694390601/-0,102557652112815/1,21203400514348/0,684943204507221/1,42516079355317/0,740741464282227/0,554216418017094/1,19000599266091*-1,90981605348591/-2,44379521690344/-2,54317675283352/-2,3376893446449/-2,16642608622166/-1,40673083258/-2,16426395970573/-1,06521766914177/-2,41433988428795/-1,30161340682086/-2,70178856543773/-2,84146287850039/-3,21601590646614/-2,49609271937478/-2,6810536075865/-2,78992255196833/-2,62416005911577/-3,2355720898885/-1,49036741232531/-2,23931556288864/-1,29511219572578/-1,85625273884123/-2,96567293487696/-1,97553566898074/-1,29566019234319/-1,59060829506893/-2,08558615647335/-1,53557703036741/-2,48177498188322/-1,98098216827359/-2,55923076190183/-1,18041887395035/-2,85507017151156/-2,58911273538988/-1,91752903176569/-1,69293543118123/-2,90965005945748/-2,89422496013207/-1,68314512544769/-1,94810254548674/-2,6921376982416/-2,4764096291205/-1,81364354947487/-1,42060596356375/-1,81509173688375/-2,7190343009727/-2,46175507835625/-1,46093528762603/-3,75092549181054/-1,66942664682221/-0,28786473508057/-1,53543425904185/-1,43035682901846/-2,50473739255902/-3,21360093075547/-3,18784312135111/-2,47250708673094/-1,54488551535959/-3,03934920065918/-2,10345114864753/-2,6655339092502/-1,09852539405448/-2,21964648403087/-2,38154446601267*-3,20207785022646/-1,95278273246191/-2,77561032726531/-2,21546993643581/-3,00528007038072/-2,25927047418703/-1,43442810334552/-2,62111461105876/-2,2642470569383/-2,90673920377365/-1,81755597413113/-2,38792385682843/-3,11126104240269/-3,24234384081612/-1,68569249103756/-2,33059976681271/-3,21155308570473/-1,54240236852773/-1,23078573693952/-1,61514459032026/-0,542679251639103/-1,4329329160055/-1,44720041244348/-1,30340926841453/-2,32247036236924/-2,41549792728847/-2,79462084055278/-2,8118646948753/-2,93480650327578/-1,72287462142166/-3,80266379293479/-1,24115618575086/-2,20516523004752/-1,78441694746858/-1,63160132161397/-2,47021618737788/-1,53456705874619/-3,14641679008125/-1,93299954715412/-2,29849698925096/-2,25725719359949/-2,81571485044541/-1,67810780194876/-1,58949860966915/-3,22012727337715/-1,92328156213175/-1,34890738561533/-2,59067899854207/-3,66931275590781/-1,65607894606357/-1,543298544048/-2,55501615560643/-1,9019157407942/-1,61956381194372/-2,75951069955502/-2,97167463377565/-1,5637447403707/-2,51267498102406/-1,92221114435812/-2,19824565352076/-2,884009130835/-1,13940660388013/-1,40681261931482/-2,58383941114323*-0,240046304740303/-0,174554509984798/0,215575832218277/0,778956304364231/1,1639380947201/0,705519810337547/1,22443170570557/-0,412847241670622/0,899164122337566/0,618948628220161/-0,198076855638281/0,222644677713871/1,21212980012923/-0,184571028604539/1,65942604387497/0,985411861710513/0,844557991600574/0,149149333165126/-0,0261882754290386/1,25814176461434/0,793574259342774/1,23023822487716/-0,313616646274063/1,32975027878004/0,395354470905591/0,800351608909201/0,618528644172001/0,620563559138036/1,62052536698646/1,53279238803114/0,106076289717523/-0,275337304738067/1,86688999043783/1,66685747296274/1,66592190099844/-0,261283642071811/0,880078313988366/1,10644967928001/0,737097311600603/0,795362419760254/0,854960066452683/0,947245271615205/1,40253114070739/0,249324228524328/1,40218605972437/0,884319777620078/1,27061293284208/1,4972207032503/1,55095630803738/0,263037139670286/-0,22401250640182/0,337835682003091/1,18134151118244/0,0351642343801784/1,34070330992507/0,664235119783242/-0,272033113716616/0,469669069928698/0,18239840641768/0,109949618422546/-0,220754283971941/-0,466422390891102/0,249355862425655/0,732609957643945*-3,26665210638577/-1,68654822455082/-3,20288488041065/-3,37517884242518/-2,96048110705489/-2,52638409866616/-3,62903351819292/-3,08116885299192/-2,14916711667289/-2,43412643979007/-3,54337739419592/-3,35647603364487/-2,54305100946602/-2,59227715538855/-2,97059609587825/-1,6887922219276/-3,59375544644224/-2,49611223825991/-1,62650530115399/-2,81641135558346/-1,29964764893742/-3,55655475953174/-2,26493699202089/-2,33974250121745/-2,22967971145117/-2,22417294491002/-3,75039744606411/-1,87740956419131/-3,82529101543386/-3,33092848243882/-3,54120539173807/-2,77060151052894/-1,5702546876562/-2,90477335932574/-1,41363752878286/-1,96571492845716/-3,50146640589644/-3,78553084758428/-2,45107102541629/-1,57270253237535/-3,79227180635119/-4,50477367594448/-1,91920255918379/-1,81123292040759/-2,08731968787442/-2,90725220965096/-2,59336396866131/-2,41103779072343/-4,05067789652335/-2,83585354274337/-0,921457005487945/-3,06378307948597/-3,49775437884241/-1,17784992042757/-2,70950309347675/-3,2729074172101/-2,81646124782436/-2,23741029673111/-3,3430520612594/-2,77148109897046/-2,59112071178978/-2,51662598744786/-1,42139640852569/-3,35843590847193*2,48469767212686/1,98418711736993/3,23672805376582/3,43732947158601/3,32468664470198/3,47737154454946/3,7405801898005/1,87347129919684/2,16936961566222/3,79631706849611/2,771786482523/3,68901958202764/3,72079292979648/3,8818417807701/3,1251984013386/3,54835074963554/3,45109966397105/3,6954795914222/3,25852298942083/3,34810283410075/2,22874549284588/2,40721499392832/1,83108510543589/3,83674408253314/2,12839979426049/2,82204560407217/2,8107656653306/2,82249372419673/2,69177323451494/4,22432258859584/3,69076247919014/1,72213118083076/2,00852908772907/2,53931473331333/3,22066452053146/3,35122625524255/3,51505217692403/3,03542822287276/2,83384268590981/2,78024518821459/3,81474578515274/4,26096384454473/1,21497838942683/2,45081135389585/4,05567530453209/2,49644851773857/3,25066596702433/2,51391051302905/2,84331479629069/2,56565071142932/1,29893758760915/3,92070284351038/2,84375770540732/1,84421518693024/3,94801913370212/3,95438387494357/1,8414590664753/3,06523643577974/3,65325111319539/2,90979744890476/2,8267559759531/1,89940358135526/1,73517426157445/2,91912302888259*-2,20896963387546/-3,03227994548313/-2,55578716641352/-2,90394220155526/-1,18982174282144/-1,84744888584666/-3,0103406165112/-2,56770836561008/-2,65395132328125/-2,54138677387691/-3,2111400650111/-3,25254375555457/-3,28124140226649/-2,00078297044521/-2,76615594049467/-2,39445453190736/-2,39676902130559/-1,91829918197696/-2,3201570343193/-1,47949430914405/-1,44175444817268/-2,43427540019348/-1,3755562316814/-1,30466826729398/-1,13534551530577/-2,86129310806085/-1,5582572385936/-2,76564881312918/-2,8835805054663/-2,95095273568071/-3,53092270521726/-2,5821619989662/-1,98296345552721/-1,79140479054872/-1,53373172701928/-1,22011967522921/-1,22728980860266/-3,08674783278346/-1,60705511669524/-2,37823870946893/-3,26626599917983/-3,47299740057978/-0,891530371187957/-1,10372527823873/-3,30658112233042/-2,33298518169307/-1,65898068960803/-2,08578875741606/-2,89414191015493/-2,20728477927189/-1,08109246792799/-2,07590653085807/-2,99773726855528/-2,25163623464073/-1,97226148401686/-2,85920869452649/-2,60461518335724/-2,18226957389065/-1,74265632950224/-1,7972375035878/-1,57892820049303/-0,680275981282189/-1,25886539945759/-1,58246762018894*-1,0039730944684/-1,02722332566217/0,236763802656858/-0,394433473784224/-1,45306849925278/-0,496513886176288/-0,970061090361209/-0,348382582791921/-1,55620495479511/0,826525215344164/0,0479121102834204/-0,885749333335913/-0,562035092447857/0,494796097869164/0,0136065791325788/-1,09885886719236/-0,370525141638392/-0,0309525004230775/0,573659055435525/0,0747508687869396/0,539799220008952/0,205355728486395/0,732484772264103/-0,603067909688692/0,11884502199945/-0,900742239042426/0,0802154787101066/-0,234697366361808/-0,451220063563538/0,559211382006006/-0,352481206095397/-0,474451509695333/-0,727794507460881/0,653854724214192/0,214301692688189/-1,06861405463526/-0,299505658946418/-1,18485476895848/-0,699116321170821/-0,970527784443465/-1,42926937210498/-1,5210760565053/-0,0543994753707851/-0,742325614362527/-0,409670182618106/-0,0992968830601018/0,3584090528074/-0,868235863939207/-0,341416244035964/-0,100849087912844/-0,203295937859833/-0,991793937671636/-1,60196888929188/0,86488886649217/-1,03874751038155/-0,841625369652199/-0,885499974491306/-0,284879069084544/-0,0738635546858003/0,288248265549356/0,275402921550833/0,669610191852067/0,438883071231268/-0,803686314797853*-1,45016787734481/-1,75073191089599/-1,10155633899491/-1,43326767819807/-0,436622855576053/-0,904636927478284/-1,25804689515002/-1,87242944482935/-1,58080277276012/-0,833893090692679/-1,15446545681474/-1,23069432097156/-2,35132796789785/-1,11543847101663/-1,02158033744891/-2,07663670060981/-1,63722537257983/-2,03916468769624/-0,630151774625628/-2,15759443156849/-0,974864437747467/-2,15185378163632/-1,69432498651452/-1,42230395539585/-0,223771983649002/-1,23674461586502/-0,652557492832214/-1,97274451096926/-1,17967318674992/-1,62816085093555/-2,17425125548362/-1,67355555420027/-1,65462853245436/-1,78531317246445/-0,912556036097907/-1,49910938153381/-2,20865003019824/-2,64293796912698/-1,37049529882812/-0,532385370088919/-0,85119908348676/-2,41149426567644/0,0215196928055819/-1,82550892095852/-2,06771735928111/-1,62446660817934/-1,72483925510253/-1,30776384199282/-1,16327400677991/-1,45458296378296/-1,44773597446389/-1,46109441427857/-2,32700607515089/-0,700551845151235/-1,29180598695452/-1,632607301167/-0,300773517468134/-1,9129244969896/-0,834399850494139/-1,7769572979844/-0,714826060088904/-1,19974491112075/-1,34021743595404/-0,789477767653029
0,807792334016806/-0,142316868898432/0,705740777210486/0,855637588258816/-0,396803123295801/0,794103761669793/-1,0001046964729/0,653567968056036/0,040703900732796/0,406708471829545
