1/1/1/1/1/1/1/1/1/1/1/1/1*
768724063929857/-714716952161266/768723829901996/737084378831594/-408789437920223/768724823491949/768723714939689/768724858492858/325064343086008/-108636072421743/116423666065756/-923095568978738/-103632642470129*178046962558193/718710402827109/178047071078207/35451754338784/-339050747146388/178047046986629/178047051354674/178046976199072/-629663289352163/-882640132160224/-299848869116906/550439736596513/301030357042807*139166576505334/-497047952607762/139166652383583/-751240547164921/-41858995678769/139166560201302/139166647812022/139166553370382/-875382854545202/-263431838370595/40348266689269/513041415025034/-140643506842034*521480398801926/-477137885744282/521480482242686/922397515700384/-508644344987648/521479457545921/5214806763707/521480554859447/214896062954746/-853566888651609/-689318439778554/-383798152852709/589099841001024*40795141538848/-712546502106146/407951412107668/-799085483792743/373547061054756/407951492598565/407951481218212/407951457909362/-252030056552976/27196585446222/-975811641652049/-5998116021975/-690046115634053*209524296012127/-219005828359633/209524280837416/-985538266592444/-178577588022956/2095244084297/209524410497679/209524406509342/484448335824743/-495818434979682/-306867991251344/-552060805052547/-579619668228375*-314735441776516/773956064029576/-314735291419946/367947312708919/-196137906609167/-314735352931308/-31473542515833/-314735356794719/554831675046511/8456761487041/519330587945567/923702629247542/363021100574648*245441044630501/989772713738388/245440847396357/-249055045307174/250896259793498/245440836387369/245440800429187/24543945962184/861038285242877/-451049907343015/110098916622856/20043432954719/164290870150687*-39572219331486/-225274281215516/-395722063552673/380523047121485/783271932873536/-395722228400256/-395722067005849/-395722146986709/494579997609639/74931263725707/64412226697622/380022630738105/-531896238928612*-458948707239341/-908485700333717/-458948674799378/141788933026506/772537410153326/-458948704009454/-458948797487835/-458948644651632/-945614088301367/851703414624419/-767583528425351/-266496618868083/25328530522682*481066630264553/-742699229504308/481057670403077/-718546047675678/-221533436896994/48106064020768/481056955747297/481071676329698/-458940907129525/533948379351733/204803120905907/-825691372074974/225184828613505*-199269403787236/-829272692012262/-199269500831732/-728169565893789/-759539923518682/-199269349311767/-199269404724937/-19926946353792/-435076748689207/430694818231601/-136241911508256/-280750647783629/222952090773243*-452693067460366/109675225387176/-452691606846639/-564500694891671/-769776958399349/-452691596925758/-452692504996702/-45269262202974/40665497090977/-172754755789766/-285811831842089/213126045285317/-291539258459368*-199000951782848/212509647576376/-199000979745919/-547815044199962/-442434079685451/-199001051315117/-199000965851142/-199001007863915/645243584944514/920031796172276/209266769331538/782555477592422/611243338143101*534820599050438/362581057177196/534820615363474/-429958542543444/495035258817969/534820705836241/534820724534653/534820723865641/-548596980771328/578377577745532/-905598506287485/-894440212237854/-389073924808332*-491131264391133/527288961935457/-491132218905443/-623767220239978/343482063777504/-491131218437441/-491131855399255/-491131644489642/-183109224393549/-841587323621655/954259960890869/-887261704489245/-126871102082949
38286354820201/370612940324297/393766812563734/603832295661114/542796517790994/580616584811762/402440648019991/573576848779177/472948874360646/467207696874329/375979973646136/523318255032544/419698076785806/364808479998993/483651929579549/558293829627108*-969891963084248/-940298855510824/-998455488249798/-152829650736778/-137576659315843/-146953533134543/-102077462781566/-145129689034114/-119582525565101/-118263958952916/-951858887758346/-132708739752921/-106232291069566/-925711909113873/-122289099543474/-141324886183431*-277752035733175/-270017061711286/-287002544763593/-438242061666323/-393648579216953/-420437935490979/-292643376188022/-415319905451086/-343327961238129/-338418317013786/-271736585902908/-380803870441236/-304974949645546/-264487459005548/-349674503814568/-404619987117723*-937356007041453/-907958417975497/-964098111399362/-14745811414081/-132735475032413/-141853138939955/-985355919778788/-14013321429333/-115439359761874/-114116225319259/-917828429203163/-128059469001491/-102595833399874/-893172251889401/-118093205328552/-136413750868639*-118927412806346/-115178528004276/-122333967605661/-187270210817741/-168545764088158/-179947596432672/-124955381351038/-177667796958136/-146479826867665/-144865700052231/-116604345927283/-162597200486247/-13023513229835/-113451534667543/-149842670361424/-172979195855936*-128243832717168/-124266438746361/-132056299870368/-202107206703588/-181909011219246/-194253462858425/-134923283737394/-191883555239054/-158160542237549/-156343408499826/-125785337332543/-175414986702547/-140431114896044/-122352194788097/-161688491615314/-186790646524346*249979818661586/242158052585249/255850477199366/393747785651128/353478107927265/377722267304974/262588686660227/37317268145008/307042664382193/303873744644238/245375013959225/341522634200859/273962869948151/237092850313974/315014446201384/363108466191234*260514133074023/252652239599013/268219041754441/409960489691383/367970164274835/393650116756189/272628617959573/389175124509803/320762455781449/317792694081862/255005549178059/354727965391192/285406093714012/247118839602349/328466113636452/377818149297668
-110455680606456/968027370902158/452958684181713/848002178477124/481229391317528/163752017631859/-11023176658073/-10038222476539*30522303488799/127655686394697/202088600011574/398555937880634/141555144119939/136951288124431/407979217750321/331464622300068*-111418118718531/922223302395385/171745301828299/123046069388301/65876606166195/140123684921968/-110073875476773/-114654689333373*-787158717812993/158361881058423/-613307450430534/-185828797423534/18515692447887/-304848457396294/-890590726845049/-903963190387546
