1/1/1/1/1/1/1/1/1/1/1/1/1*
-0,409000038825441/-0,553944932089162/-0,277030503971982/0,162546678987586/0,510440477873404/-0,856232632815946/-0,523859038727292/-0,669022434236958/-0,534912321499974/0,167246361806638/0,474377758556221/0,0915725394578524/0,307000855592545*-0,74487084510963/-0,803051593621751/-0,038981060981276/0,186629315459462/-0,374535580805752/0,916807678489391/-0,639151790011279/0,295368917889599/0,543937301050842/0,152975339979388/-0,421320222980026/0,802944339720041/-0,0274189966858454*-0,134365964277818/-0,589283262188213/-0,862551215040754/0,402246081923249/0,327637863963674/0,817983375777483/-0,594199251194577/0,559536063838534/-0,529859362882496/-0,719515793826206/-0,825787254528043/-0,206934354830037/-0,918904889337208*0,985275055274961/0,359646496996119/0,903182202905036/-0,368404329460303/-0,582170686489982/0,569024183586717/-0,740513755819068/-0,15499203705927/0,1895640060257/0,749221986042905/-0,327969136334941/0,772003207249568/-0,587548611493571*0,762093852163336/0,838312761782814/0,34319665997438/0,0470626601237165/0,293079727931451/-0,855710280991956/0,359602339267546/-0,462140525440751/0,278133331461872/-0,93457577653908/-0,806471219196204/0,062841596576777/0,839608497842964*0,656394382778739/-0,31422820934757/0,747464791754011/0,784988517772867/0,916464200204455/-0,213193806453233/-0,6064363297105/-0,455630691468544/0,93153262321443/0,00120171299260186/0,392186714984563/-0,0876583694888551/-0,264853973530631*0,00965559343325695/0,543458095539109/-0,872426959626575/0,676070029696482/-0,338505248231117/0,465417921294187/0,630242874673681/-0,0848135245427553/-0,944110476385853/-0,432512012977392/-0,783660596135846/0,423077976993787/-0,0125955217576564*-0,970076973536088/0,433463305902417/0,543235636103542/-0,292858276186911/0,294222273535199/0,709653422101239/0,56875407396292/-0,421779184332946/0,912629800807978/0,573714453528502/0,0975431711867187/0,404575488252833/0,83275778583845*0,885224670118291/0,378439536960069/0,868082079974973/0,830561228948907/-0,162888951209788/0,951009944989816/-0,865278970387429/-0,442066298537918/0,134634125574787/0,816144243728437/-0,589713565814175/0,602063301765389/0,403929471692037*-0,271889140490391/0,432598721903096/-0,0755779776142808/0,600504859164592/-0,881716196370179/0,531125387889857/-0,63808945922092/-0,070940278037889/-0,243116832917145/-0,0398996356129179/0,00113367242791385/0,22439089940134/0,706979439457403*0,682533292883324/0,343587556548224/-0,843074789197685/0,0970257926252791/0,969743642010607/0,0300298691867058/-0,728505458556351/-0,171263034069567/0,580193251175896/-0,748196662286388/0,0471043954822721/-0,77467170533476/0,730376938232396*-0,734670541125662/0,288356947381216/-0,570529223219738/-0,104711099110875/0,617319062173981/0,132949201917718/0,1050784220477/0,890292801843161/-0,0184574374083697/-0,863844647940176/0,653798793281335/-0,687875058356614/0,455430649898681*0,566417783296862/0,0426649474737537/-0,0963019361236608/0,128341503035436/-0,581660827427013/-0,133051592452941/-0,393829670452433/0,130131609332809/-0,731523347893508/-0,208866526935653/-0,598991509340234/-0,962391667050492/0,84640060171783*0,380256564999119/0,33056876032174/-0,424807494238395/0,147917608333713/0,180795384189484/0,877317626903447/0,375176564499352/-0,612093134602575/0,265795929015519/0,0735535933978639/-0,500411054818151/0,86159426619373/0,342781302213101*0,868184470510196/-0,88068752264636/0,816686637614242/-0,299009269708306/0,2074322044884/-0,496873582479019/-0,215099149018107/-0,485687007888075/0,463612085889844/0,228829593969895/0,925038902054093/-0,54814825185954/0,833464165140625*-0,819844012064787/0,619157965117673/-0,399754671100413/0,996852806767846/-0,502776525683131/-0,971537713879504/-0,142319432060383/0,770918460456151/0,752692636918599/0,774509661725959/0,315100296081556/0,833624954257917/-0,0446400321296603*0,776481166377888/-0,0630516228559668/0,0675237845012564/-0,699378145718657/0,96911135407589/-0,59589088130551/0,266747236841706/0,0755578703598854/-0,00123606296313739/-0,513142147806074/0,313444971718567/0,567485921814798/0,583701268575946*0,897882073138786/0,252707481967615/0,332087609605904/0,916644479109274/-0,898260833648155/-0,349846396292488/-0,303934139806747/0,347331219048859/0,697161638968234/0,756018599381679/0,787661536497838/0,268943122247673/-0,423669880919005*-0,528873340938647/0,00391369825411303/0,57186284175695/-0,884508166408403/-0,655197184372319/-0,498413658467314/-0,132634223966223/-0,747927763381939/-0,273354748856907/0,84795247383786/0,446789207610669/0,162990231608502/0,259718239894006*0,520929783359603/0,185104511298753/-0,24209370521926/0,181392050898351/0,132300112923747/0,28680035718102/-0,570633115046952/-0,0864777942590778/-0,86941978701829/0,604973085972002/-0,561169149149754/0,836048157809325/0,672770495374114*-0,335053307625956/0,137559094064664/0,608028748821481/-0,920680472590346/0,180929777762354/0,279862248003419/0,0316787320336693/0,392781234994894/0,932982459633137/-0,737166461412407/0,503695028602935/-0,116727896554734/-0,857944963433754*-0,188141369814119/-0,299879854218978/0,331629031957886/0,171236821995693/0,404755008129755/0,885298401995235/-0,246345752499227/-0,15797907354216/0,129223820347909/0,5109613488945/-0,410575075731881/-0,484230411930117/-0,376281513542068*-0,499138820683183/-0,160423762705374/0,662807913340073/-0,659453553920357/0,398940612282111/0,133031990906704/-0,720556324217728/-0,327967679746434/0,836639649158642/0,729806681969113/-0,35595651220342/-0,352674276266561/-0,332977303924494*-0,83307304039275/-0,868688500425168/0,866937004899111/0,587947323726466/-0,0777290272888397/0,254211266177805/-0,701880052546915/-0,00975492364249886/-0,525058273004861/0,729246739172026/0,581893173783036/-0,0406566090139824/-0,799781922157752*-0,446467551144989/0,082393910308552/-0,169250431083725/0,535722872026136/0,626597745170164/0,0186038245533611/0,563549939339771/-0,442788708695578/-0,220998931313399/-0,807897505260956/0,729973321654821/0,592436013553495/-0,136107073694517*-0,629336962303769/-0,396171572337007/0,47002271631268/-0,0247810189727605/-0,0296865361880914/-0,312414455838694/-0,476088901737746/-0,262267687945751/0,718371442387985/-0,37765725207406/-0,0249160784412716/0,541276496621443/-0,41130962381666*0,335213658090315/-0,782350359383202/0,633473410100431/-0,974080547678322/0,1103294981226/-0,919085260442963/0,381203055093625/0,198722534439863/-0,420500457948307/0,19704976547372/0,841282751337291/-0,699083222867494/-0,896791063201051*0,625439663243219/0,0837757843936682/-0,890188595228916/0,387925890920649/0,939209004835789/-0,86303631675571/0,995511310172971/-0,941621953594322/-0,116451771518426/0,694291519790092/0,520222360044821/0,4997227459679/-0,241066724639883*-0,105692370378269/-0,564567707276236/0,462485765787999/-0,164838993532974/-0,539948837617388/0,855665647357547/0,994446375404692/0,0379073689868243/0,683390166463046/0,345900298722973/-0,0762621187960087/-0,246918383635077/0,081772996616444*0,649058582097785/-0,788767041540131/0,66517039186562/0,791163495644537/0,406778662189273/0,628739964975389/-0,325697796105267/-0,132895472987041/0,0621458809180864/0,440135313868586/-0,372079092716835/-0,669554448532664/-0,316866256909848*-0,161879761685561/0,545765186448472/-0,469687670222338/-0,548334570391259/-0,476641879173295/-0,88674894994439/-0,473803293646222/-0,648603777237518/0,186607109935305/-0,0542292376301388/0,736236768651864/0,744338535584667/-0,263001396908891*0,985617103979745/-0,693529598272187/0,0653015678121249/0,942049496780173/0,737875485670695/0,186073523567092/-0,365155725444274/-0,142563991780655/-0,512094898853495/0,784278351713102/-0,606792345459942/0,0923847328370366/-0,71248714239918*0,891482395069433/-0,174579457926834/0,891828748347158/0,832161748703645/-0,0047030211448218/-0,165435141495166/-0,495284545000309/0,77691741929246/0,0175454090431078/-0,55131881104378/-0,492404960790838/0,231724736854306/-0,177457822103732*-0,189513168851618/-0,773115089988855/-0,269623226146038/-0,537548527837521/0,265462196090008/0,928933623213756/-0,95317503994013/-0,330219940901836/0,643122860995644/-0,63216819783308/0,801802959200834/0,120096384137914/0,702259828197891*0,441847383716073/0,69560127691161/0,825697734870807/-0,649784862832066/0,761486834735371/-0,862895324762396/0,359280696771704/-0,764154736774114/-0,778231345013823/0,700776164280612/-0,540432525584676/0,354445361231661/0,950473783514683*-0,0983280898529701/0,239623080584976/-0,0399188162013511/-0,0319283050633633/0,857789212771593/-0,442293471397037/-0,289675240074133/-0,084666692225573/-0,624413307581289/-0,592040635455419/-0,872940765634617/-0,974546371015975/-0,481183844376907*-0,535725968673698/0,0455597727771662/0,617732798502656/-0,751640465926211/-0,542411260093754/-0,909974210853676/-0,287934635434269/0,293037150657287/0,392717474788761/-0,190885821911919/0,951219684421653/-0,332669728124826/-0,31280564577915*-0,629509636028441/0,872444040082602/-0,413303085329618/-0,411281823837795/-0,473891254269467/-0,729190700561363/0,108006110930818/0,314988412575325/0,0272617130667259/-0,192798120525106/0,709698875299515/-0,324948833940993/-0,489957410604673*0,244096430597872/-0,590228375787953/-0,213073479576536/0,066260691297362/0,287641912367028/0,698638500505424/-0,675238491816092/0,242670679112277/0,672830643911301/-0,686279076005462/-0,38188753527677/0,973409120912389/0,243187424374366*-0,630458314730999/-0,35762000333407/-0,342563367142604/0,508954435358268/-0,569491097503105/0,00886149937699621/-0,699258576938537/0,170594858550744/-0,812783835368596/-0,162119280156735/-0,671363606895955/0,786868516256506/0,881850618814049*0,856249934926745/-0,0825524819467927/0,203827743047768/0,437012318259576/-0,761642106697728/0,908033923203141/0,573308368014781/0,947546150510919/-0,154070641451548/-0,697706259646316/-0,493889369766176/-0,673543216508601/0,521472265721053*-0,747418816083772/-0,657431236308734/0,444523675108572/-0,302340279939743/0,558723116088064/0,968584449947153/-0,384690944750184/0,282921321356167/0,901267614169637/-0,534373885735112/-0,34244822028207/0,518307277708457/-0,623307023022001*-0,299162624077482/-0,625690257002455/0,339447730844583/0,0568802659664678/0,571890904368782/-0,541709872680581/0,279392175040856/0,405791293552979/0,842388565578679/0,407313990130701/-0,961157063935491/-0,764181674348275/-0,924636969307734*-0,289921458479912/-0,599899247102393/0,295641273863447/0,523612326720549/-0,659913743687753/-0,848673997376428/0,182497651866869/-0,0909633632241578/-0,243719684539232/0,958172659370197/0,726071183442171/0,489556444571147/0,279157603755201*-0,639948056843108/0,17155946100669/-0,401070702542118/0,954982320757109/-0,548178596211681/-0,453724036670161/0,918705040551119/0,861664916324273/0,207196547280623/0,198998625017236/-0,391901580333664/0,789049092581984/-0,269597164015098*-0,952179497085595/0,0470646084505435/-0,884319027831927/-0,589807381662451/-0,0647452264394356/0,405680739044063/-0,538158605591468/0,483360085395798/0,258505908427064/-0,784791697647791/0,98728004749272/-0,622344712550912/-0,874460142047359*-0,493774222905642/-0,664190374158411/0,467656340202157/0,944557060461751/-0,583862916372653/0,613376547402412/0,567323821395321/-0,707266699386419/-0,901761815837474/-0,892167285965834/-0,193138003904902/0,88740624482157/-0,0445074136576185*0,492566972734671/-0,682886714899394/-0,786301885632007/0,502881994239465/0,201102127880371/-0,31245714580289/0,734563234138565/0,609683420327345/-0,896494500290833/-0,864566956583675/-0,206644335392231/-0,653912302876782/0,0229178858096328*-0,679609555601892/0,0277150501626149/0,795797518359403/0,101546034729828/-0,0436488413455193/-0,388350750034838/0,577327033308021/-0,673718454164322/-0,959949813764519/0,58289541470953/-0,605991423877883/0,262639486818872/-0,217138458610111*-0,00527812773607583/-0,778274728813337/-0,562330464628679/0,949582318751878/-0,0607681055836231/0,308818976072976/-0,47721362648402/0,979762187218183/0,913113766309392/-0,855271890692074/0,269661971027805/0,755623914187599/0,0141061744718376*0,29973719329561/-0,356907946689477/-0,484143562374703/-0,59727972261481/-0,799623417574737/-0,325699324405612/0,598469363338533/0,393219197817714/0,292986103004304/-0,460391228767294/-0,503064217745822/-0,00330785056730165/0,151481555379686*-0,804787253870064/-0,689920788486451/-0,370788959493297/0,452516786499189/-0,265782129608925/0,819689538245876/-0,759757492579407/-0,581759413509518/0,692820981933186/0,512837962951901/0,172013884956024/-0,846076819042711/0,196201148999949*0,484536688534793/0,823301323607239/0,0431556985914501/-0,592723321911284/-0,117013059145311/-0,473864452668403/0,345922120542229/0,942244984182643/0,311912056669552/-0,0657650200025015/0,810425108210382/0,637329908850291/0,382518832284267*0,719707900527729/0,66417012348034/0,389642343572174/0,70173576925962/0,682116499953958/0,940733753117143/-0,0471098306808201/0,787750339036691/0,11360622994304/-0,787292837997569/0,350551146711479/-0,539403020189797/0,410510238916851*0,449972432781929/0,515381406767006/-0,404134412018645/0,606916211362424/0,130254090358622/0,343842552669273/-0,751202903572099/0,00417543342531457/0,189763987059595/0,775168039731294/-0,649936500773736/-0,114290575084412/0,656621830378017*0,970800234922581/0,650770028890469/0,209236571197043/-0,116699310539616/0,37584423151605/-0,181214067703678/0,815186877648899/0,351699038106808/-0,900018362281853/-0,423927616059746/0,028598242918308/0,991085212673566/0,830721462997944*0,231280131838881/0,201033011638109/0,408450809963257/-0,629069541408247/0,610594161604808/0,692604551879971/0,946679698278513/0,472476701937838/0,0761631145496682/0,830540713775223/0,346379396201288/0,704995845307128/0,803980889638877*-0,533417444458891/0,388532812422389/-0,621656601141047/-0,470056086531866/0,889002083749046/0,03957884434591/-0,183973655655968/-0,97450533042406/0,969933518194563/0,302120140428711/-0,421486232160351/-0,769694459517344/-0,163137069513619*-0,468234785584842/-0,354589897838696/-0,941188799189957/0,349990795063782/-0,0606909771732478/0,567267345063047/0,615830998688857/0,299532627360678/-0,887437579169608/0,0477640847897922/0,595724623462057/-0,181166471532158/-0,835426121873514*-0,342541052653706/-0,0609702733629245/-0,815854871559821/-0,105362879627088/0,820229315115246/0,862857174995755/0,178304844153256/0,571863341877173/-0,647796623244787/-0,573345934773491/-0,026644360752145/0,570037724250014/-0,312929699808792*0,989019398572398/0,175058868329534/0,805226793422004/0,261346613644318/0,898912871209398/-0,170062957876391/-0,859375081890903/-0,226268768881573/0,160839337464813/0,301269596117208/0,413665501127795/0,726172319485886/-0,108768309051529*0,779112051138241/-0,910835153381729/-0,495551737721801/-0,645979865289284/-0,659231272367403/-0,217381224603104/0,711110385000292/0,72442820562256/-0,617880103000384/0,876996617706957/0,841349541135761/0,0752963978216501/0,481890825313465*-0,284343407156106/0,0520006963294002/0,264999588609207/-0,820438162340055/-0,781243963065205/0,0854555615621877/0,779953070813768/-0,747761277364456/0,578247946490649/-0,559227869640676/0,494305833938674/-0,148784192813926/0,148851213580394*-0,234212418661552/-0,321791389641255/0,390842647008059/0,496619609881481/0,637760130519867/-0,229520372687616/0,168464800887026/-0,0710023758332257/-0,916254876142486/0,0891399975349847/0,0674150795989741/0,998183242044497/-0,914114662406088
-0,409000038825441/-0,553944932089162/-0,277030503971982/0,162546678987586/0,510440477873404/-0,856232632815946/-0,523859038727292/-0,669022434236958/-0,534912321499974/0,167246361806638/0,474377758556221/0,0915725394578524/0,307000855592545/-0,74487084510963/-0,803051593621751/-0,038981060981276/0,186629315459462/-0,374535580805752/0,916807678489391/-0,639151790011279/0,295368917889599/0,543937301050842/0,152975339979388/-0,421320222980026/0,802944339720041/-0,0274189966858454/-0,134365964277818/-0,589283262188213/-0,862551215040754/0,402246081923249/0,327637863963674/0,817983375777483/-0,594199251194577/0,559536063838534/-0,529859362882496/-0,719515793826206/-0,825787254528043/-0,206934354830037/-0,918904889337208/0,985275055274961/0,359646496996119/0,903182202905036/-0,368404329460303/-0,582170686489982/0,569024183586717/-0,740513755819068/-0,15499203705927/0,1895640060257/0,749221986042905/-0,327969136334941/0,772003207249568/-0,587548611493571/0,762093852163336/0,838312761782814/0,34319665997438/0,0470626601237165/0,293079727931451/-0,855710280991956/0,359602339267546/-0,462140525440751/0,278133331461872/-0,93457577653908/-0,806471219196204/0,062841596576777*0,839608497842964/0,656394382778739/-0,31422820934757/0,747464791754011/0,784988517772867/0,916464200204455/-0,213193806453233/-0,6064363297105/-0,455630691468544/0,93153262321443/0,00120171299260186/0,392186714984563/-0,0876583694888551/-0,264853973530631/0,00965559343325695/0,543458095539109/-0,872426959626575/0,676070029696482/-0,338505248231117/0,465417921294187/0,630242874673681/-0,0848135245427553/-0,944110476385853/-0,432512012977392/-0,783660596135846/0,423077976993787/-0,0125955217576564/-0,970076973536088/0,433463305902417/0,543235636103542/-0,292858276186911/0,294222273535199/0,709653422101239/0,56875407396292/-0,421779184332946/0,912629800807978/0,573714453528502/0,0975431711867187/0,404575488252833/0,83275778583845/0,885224670118291/0,378439536960069/0,868082079974973/0,830561228948907/-0,162888951209788/0,951009944989816/-0,865278970387429/-0,442066298537918/0,134634125574787/0,816144243728437/-0,589713565814175/0,602063301765389/0,403929471692037/-0,271889140490391/0,432598721903096/-0,0755779776142808/0,600504859164592/-0,881716196370179/0,531125387889857/-0,63808945922092/-0,070940278037889/-0,243116832917145/-0,0398996356129179/0,00113367242791385*0,22439089940134/0,706979439457403/0,682533292883324/0,343587556548224/-0,843074789197685/0,0970257926252791/0,969743642010607/0,0300298691867058/-0,728505458556351/-0,171263034069567/0,580193251175896/-0,748196662286388/0,0471043954822721/-0,77467170533476/0,730376938232396/-0,734670541125662/0,288356947381216/-0,570529223219738/-0,104711099110875/0,617319062173981/0,132949201917718/0,1050784220477/0,890292801843161/-0,0184574374083697/-0,863844647940176/0,653798793281335/-0,687875058356614/0,455430649898681/0,566417783296862/0,0426649474737537/-0,0963019361236608/0,128341503035436/-0,581660827427013/-0,133051592452941/-0,393829670452433/0,130131609332809/-0,731523347893508/-0,208866526935653/-0,598991509340234/-0,962391667050492/0,84640060171783/0,380256564999119/0,33056876032174/-0,424807494238395/0,147917608333713/0,180795384189484/0,877317626903447/0,375176564499352/-0,612093134602575/0,265795929015519/0,0735535933978639/-0,500411054818151/0,86159426619373/0,342781302213101/0,868184470510196/-0,88068752264636/0,816686637614242/-0,299009269708306/0,2074322044884/-0,496873582479019/-0,215099149018107/-0,485687007888075/0,463612085889844/0,228829593969895*0,925038902054093/-0,54814825185954/0,833464165140625/-0,819844012064787/0,619157965117673/-0,399754671100413/0,996852806767846/-0,502776525683131/-0,971537713879504/-0,142319432060383/0,770918460456151/0,752692636918599/0,774509661725959/0,315100296081556/0,833624954257917/-0,0446400321296603/0,776481166377888/-0,0630516228559668/0,0675237845012564/-0,699378145718657/0,96911135407589/-0,59589088130551/0,266747236841706/0,0755578703598854/-0,00123606296313739/-0,513142147806074/0,313444971718567/0,567485921814798/0,583701268575946/0,897882073138786/0,252707481967615/0,332087609605904/0,916644479109274/-0,898260833648155/-0,349846396292488/-0,303934139806747/0,347331219048859/0,697161638968234/0,756018599381679/0,787661536497838/0,268943122247673/-0,423669880919005/-0,528873340938647/0,00391369825411303/0,57186284175695/-0,884508166408403/-0,655197184372319/-0,498413658467314/-0,132634223966223/-0,747927763381939/-0,273354748856907/0,84795247383786/0,446789207610669/0,162990231608502/0,259718239894006/0,520929783359603/0,185104511298753/-0,24209370521926/0,181392050898351/0,132300112923747/0,28680035718102/-0,570633115046952/-0,0864777942590778/-0,86941978701829*0,604973085972002/-0,561169149149754/0,836048157809325/0,672770495374114/-0,335053307625956/0,137559094064664/0,608028748821481/-0,920680472590346/0,180929777762354/0,279862248003419/0,0316787320336693/0,392781234994894/0,932982459633137/-0,737166461412407/0,503695028602935/-0,116727896554734/-0,857944963433754/-0,188141369814119/-0,299879854218978/0,331629031957886/0,171236821995693/0,404755008129755/0,885298401995235/-0,246345752499227/-0,15797907354216/0,129223820347909/0,5109613488945/-0,410575075731881/-0,484230411930117/-0,376281513542068/-0,499138820683183/-0,160423762705374/0,662807913340073/-0,659453553920357/0,398940612282111/0,133031990906704/-0,720556324217728/-0,327967679746434/0,836639649158642/0,729806681969113/-0,35595651220342/-0,352674276266561/-0,332977303924494/-0,83307304039275/-0,868688500425168/0,866937004899111/0,587947323726466/-0,0777290272888397/0,254211266177805/-0,701880052546915/-0,00975492364249886/-0,525058273004861/0,729246739172026/0,581893173783036/-0,0406566090139824/-0,799781922157752/-0,446467551144989/0,082393910308552/-0,169250431083725/0,535722872026136/0,626597745170164/0,0186038245533611/0,563549939339771/-0,442788708695578*-0,220998931313399/-0,807897505260956/0,729973321654821/0,592436013553495/-0,136107073694517/-0,629336962303769/-0,396171572337007/0,47002271631268/-0,0247810189727605/-0,0296865361880914/-0,312414455838694/-0,476088901737746/-0,262267687945751/0,718371442387985/-0,37765725207406/-0,0249160784412716/0,541276496621443/-0,41130962381666/0,335213658090315/-0,782350359383202/0,633473410100431/-0,974080547678322/0,1103294981226/-0,919085260442963/0,381203055093625/0,198722534439863/-0,420500457948307/0,19704976547372/0,841282751337291/-0,699083222867494/-0,896791063201051/0,625439663243219/0,0837757843936682/-0,890188595228916/0,387925890920649/0,939209004835789/-0,86303631675571/0,995511310172971/-0,941621953594322/-0,116451771518426/0,694291519790092/0,520222360044821/0,4997227459679/-0,241066724639883/-0,105692370378269/-0,564567707276236/0,462485765787999/-0,164838993532974/-0,539948837617388/0,855665647357547/0,994446375404692/0,0379073689868243/0,683390166463046/0,345900298722973/-0,0762621187960087/-0,246918383635077/0,081772996616444/0,649058582097785/-0,788767041540131/0,66517039186562/0,791163495644537/0,406778662189273/0,628739964975389/-0,325697796105267*-0,132895472987041/0,0621458809180864/0,440135313868586/-0,372079092716835/-0,669554448532664/-0,316866256909848/-0,161879761685561/0,545765186448472/-0,469687670222338/-0,548334570391259/-0,476641879173295/-0,88674894994439/-0,473803293646222/-0,648603777237518/0,186607109935305/-0,0542292376301388/0,736236768651864/0,744338535584667/-0,263001396908891/0,985617103979745/-0,693529598272187/0,0653015678121249/0,942049496780173/0,737875485670695/0,186073523567092/-0,365155725444274/-0,142563991780655/-0,512094898853495/0,784278351713102/-0,606792345459942/0,0923847328370366/-0,71248714239918/0,891482395069433/-0,174579457926834/0,891828748347158/0,832161748703645/-0,0047030211448218/-0,165435141495166/-0,495284545000309/0,77691741929246/0,0175454090431078/-0,55131881104378/-0,492404960790838/0,231724736854306/-0,177457822103732/-0,189513168851618/-0,773115089988855/-0,269623226146038/-0,537548527837521/0,265462196090008/0,928933623213756/-0,95317503994013/-0,330219940901836/0,643122860995644/-0,63216819783308/0,801802959200834/0,120096384137914/0,702259828197891/0,441847383716073/0,69560127691161/0,825697734870807/-0,649784862832066/0,761486834735371/-0,862895324762396*0,359280696771704/-0,764154736774114/-0,778231345013823/0,700776164280612/-0,540432525584676/0,354445361231661/0,950473783514683/-0,0983280898529701/0,239623080584976/-0,0399188162013511/-0,0319283050633633/0,857789212771593/-0,442293471397037/-0,289675240074133/-0,084666692225573/-0,624413307581289/-0,592040635455419/-0,872940765634617/-0,974546371015975/-0,481183844376907/-0,535725968673698/0,0455597727771662/0,617732798502656/-0,751640465926211/-0,542411260093754/-0,909974210853676/-0,287934635434269/0,293037150657287/0,392717474788761/-0,190885821911919/0,951219684421653/-0,332669728124826/-0,31280564577915/-0,629509636028441/0,872444040082602/-0,413303085329618/-0,411281823837795/-0,473891254269467/-0,729190700561363/0,108006110930818/0,314988412575325/0,0272617130667259/-0,192798120525106/0,709698875299515/-0,324948833940993/-0,489957410604673/0,244096430597872/-0,590228375787953/-0,213073479576536/0,066260691297362/0,287641912367028/0,698638500505424/-0,675238491816092/0,242670679112277/0,672830643911301/-0,686279076005462/-0,38188753527677/0,973409120912389/0,243187424374366/-0,630458314730999/-0,35762000333407/-0,342563367142604/0,508954435358268/-0,569491097503105*0,00886149937699621/-0,699258576938537/0,170594858550744/-0,812783835368596/-0,162119280156735/-0,671363606895955/0,786868516256506/0,881850618814049/0,856249934926745/-0,0825524819467927/0,203827743047768/0,437012318259576/-0,761642106697728/0,908033923203141/0,573308368014781/0,947546150510919/-0,154070641451548/-0,697706259646316/-0,493889369766176/-0,673543216508601/0,521472265721053/-0,747418816083772/-0,657431236308734/0,444523675108572/-0,302340279939743/0,558723116088064/0,968584449947153/-0,384690944750184/0,282921321356167/0,901267614169637/-0,534373885735112/-0,34244822028207/0,518307277708457/-0,623307023022001/-0,299162624077482/-0,625690257002455/0,339447730844583/0,0568802659664678/0,571890904368782/-0,541709872680581/0,279392175040856/0,405791293552979/0,842388565578679/0,407313990130701/-0,961157063935491/-0,764181674348275/-0,924636969307734/-0,289921458479912/-0,599899247102393/0,295641273863447/0,523612326720549/-0,659913743687753/-0,848673997376428/0,182497651866869/-0,0909633632241578/-0,243719684539232/0,958172659370197/0,726071183442171/0,489556444571147/0,279157603755201/-0,639948056843108/0,17155946100669/-0,401070702542118/0,954982320757109*-0,548178596211681/-0,453724036670161/0,918705040551119/0,861664916324273/0,207196547280623/0,198998625017236/-0,391901580333664/0,789049092581984/-0,269597164015098/-0,952179497085595/0,0470646084505435/-0,884319027831927/-0,589807381662451/-0,0647452264394356/0,405680739044063/-0,538158605591468/0,483360085395798/0,258505908427064/-0,784791697647791/0,98728004749272/-0,622344712550912/-0,874460142047359/-0,493774222905642/-0,664190374158411/0,467656340202157/0,944557060461751/-0,583862916372653/0,613376547402412/0,567323821395321/-0,707266699386419/-0,901761815837474/-0,892167285965834/-0,193138003904902/0,88740624482157/-0,0445074136576185/0,492566972734671/-0,682886714899394/-0,786301885632007/0,502881994239465/0,201102127880371/-0,31245714580289/0,734563234138565/0,609683420327345/-0,896494500290833/-0,864566956583675/-0,206644335392231/-0,653912302876782/0,0229178858096328/-0,679609555601892/0,0277150501626149/0,795797518359403/0,101546034729828/-0,0436488413455193/-0,388350750034838/0,577327033308021/-0,673718454164322/-0,959949813764519/0,58289541470953/-0,605991423877883/0,262639486818872/-0,217138458610111/-0,00527812773607583/-0,778274728813337/-0,562330464628679
-0,409000038825441/-0,553944932089162/-0,277030503971982/0,162546678987586/0,510440477873404/-0,856232632815946/-0,523859038727292/-0,669022434236958/-0,534912321499974/0,167246361806638
