1/1/1/1/1/1/1/1/1/1/1/1/1*1/1/1/1/1/1/1/1/1/1/1/1/1*1/1/1/1/1/1/1/1/1/1/1/1/1*1/1/1/1/1/1/1/1/1/1/1/1/1*1/1/1/1/1/1/1/1/1/1/1/1/1*1/1/1/1/1/1/1/1/1/1/1/1/1*1/1/1/1/1/1/1/1/1/1/1/1/1*1/1/1/1/1/1/1/1/1/1/1/1/1*1/1/1/1/1/1/1/1/1/1/1/1/1*1/1/1/1/1/1/1/1/1/1/1/1/1*1/1/1/1/1/1/1/1/1/1/1/1/1*1/1/1/1/1/1/1/1/1/1/1/1/1*1/1/1/1/1/1/1/1/1/1/1/1/1
-5,37071609908149/-0,289696704019472/10,8717790027595/-11,5254746623104/15,0698355827819/-27,8980968043326/-24,5667855967505/-53,4965144905584/-35,9470665549397/-47,3067404460035/-27,5789471442276/69,5608950198426/6,30938677478998*-10,4342315269632/47,149808626558/-28,3527398950955/2,05287973575629/-4,91358994089072/3,59720087468742/59,399454589914/17,1610128014046/21,3486716707488/40,5641492045066/-23,2057804095106/47,4960674913768/60,2724627594445*-20,8973146514432/0,743013177422691/-35,5243814179967/-53,0949529971514/-5,97681681823578/-22,6950325537119/9,78985085085256/46,0459488160053/-28,3138043139154/-44,2645365939302/-22,3648803083389/9,66809833510577/35,9274425629191*59,1002375192281/70,9289224964969/51,6035400808986/-57,8257009425219/12,9457613575602/2,60774969887903/-21,7924785960009/-7,93361402225262/-27,8721757483317/-9,13393302460196/-6,53432816087865/14,0986505952447/-46,9899507852372*50,994746870165/-14,2311327270136/46,2880667636932/4,62593420162927/-15,4893082313448/37,3854827814618/31,7772336993462/16,6372673391963/41,5793315892867/16,240628542337/23,5529784846414/-24,8908276750045/-5,86599917441878*-53,7860226930262/-26,6835821785565/-4,873322381833/5,13624065316539/-4,03616103594502/-9,02007338190185/-12,6816746107415/-21,3437731445546/-15,1319236599133/-20,8652476960508/-11,9383107412563/-2,88711816555363/-28,0403515535611*13,0744150257408/26,6642470508729/14,3380572291793/-8,29143235389987/15,1943329133032/-35,3317473427553/-19,4012667471699/16,4128493997525/-2,9300796102698/-68,1360267835264/-14,1489012881647/-23,0632675073535/-5,1116671232324*5,3397847359031/8,47457551653397/14,8419201701598/26,7856968403948/-4,45454243654994/27,6311600593306/17,3869833294479/18,9986752971593/-6,58296407303443/-7,82915811517466/28,9303613778865/5,0279038292706/18,7346938865606*4,55483043316998/10,2191144932209/-8,44199251545408/-18,8655276536157/-69,3860177689964/72,8255548168548/-14,7365318716938/35,9864958821439/-14,5056454436983/-26,8329601210883/6,55334840812558/12,8839212446485/7,29258564308927*9,20551351857182/4,65308038425778/-15,8088363539609/-26,8794478380141/-32,4603022915088/3,6369982358857/-21,2114882514066/3,65174653689098/-27,8746754302902/54,7618119365859/14,0195128255999/4,57147452016492/-14,1189781283139*20,1542357672786/17,6830880668911/-4,72625497461169/22,2460437255517/15,56009876471/16,3244906267372/-6,08365088093534/9,5920261041855/13,5148620614058/25,9988667043867/-7,23544240217196/26,4030392857337/21,7960964161448*-6,33086518467595/42,6815696700242/42,1566444165993/0,54190562913011/43,347777413996/-8,21404443715767/38,3737529615749/38,5197773083807/-12,3971976097206/-68,3151055868299/-22,6943852162352/50,3685371186287/44,6806656956122*9,57174380847555/10,2654785783187/3,0234710432076/7,89871014981518/7,24737776100178/0,0782761291877612/11,8233233992997/12,4570153753827/11,2847776919257/-1,81040164161872/15,3118613782489/8,8675928568442/16,360496584493*2,34209095262147/-12,1456760409841/16,6405125844908/-11,6208121359254/-62,1747865202947/17,7818816603774/10,7946080851805/7,72356232302727/-63,5815258644323/4,91228889655475/-47,2109233036631/-17,2774440100641/13,9663231271713*37,9339374643177/-7,82931007969913/-48,3522479624588/-7,32427799828883/49,3143225652906/-16,2889901770706/-6,67045261309767/7,43116211560166/25,7806092435664/-27,0717159679955/-3,0152931347273/-25,4808513384308/-17,9493643387641*16,4094010735654/52,3692695595664/15,1836012506052/-33,1999161926911/-50,2948113770072/20,7974952893715/40,3039575522659/6,78812697143557/42,7824656151384/22,1873556624444/20,6240487139608/-33,6503821900656/37,478778462869*-4,457739137868/-11,3353870322208/26,6094455420513/-21,149454148809/-57,7736371723916/-25,4233546768847/15,3924187290638/30,107804337915/-33,0992207932428/58,9117299495048/-5,89330042205269/-28,0270857105689/16,3984353873567*72,856427411432/-35,0038555563157/22,9517792310746/33,4995232287812/39,2270402773073/0,896026521475928/-7,77200823272805/-26,1113046472929/-19,3783635849259/-54,4114040914559/47,1316816439627/-16,8269639384622/13,6935775179822*20,1997540676671/43,8730578512476/18,9609217804278/4,63793843919199/-0,355999685420021/10,9067567062341/-29,1562600185836/31,9653993506283/-50,4537510361402/-40,3456810990176/13,6076941507861/-23,2733027226481/27,3771246249838*14,4527553217218/6,94800949236225/-46,8642346134165/29,7160167997811/35,5384518911195/-35,6367607812821/47,7309655465153/-13,4350094636708/82,5746166426405/22,6927667875335/22,8862865054837/21,4628472423338/16,9849529049939*15,3971733135648/34,5156872941496/19,8495758038932/-17,8703891782883/-8,40444384690126/-34,6668249223537/25,1346552877804/20,5342548447338/28,2277479687737/10,8471697897383/-39,0112652817374/-50,1601656379516/-2,61754314960596*32,3034539361518/24,5076778601809/-28,9273403542924/-8,89289694718348/31,4622744879652/-3,35368291458039/13,7660161376474/-6,43224909636155/23,0190345656264/69,1556033372287/34,8450937897087/28,5642204100225/26,935715442608*22,2242260611558/14,0942606693539/1,79058023314351/30,6144908138392/28,1132052569994/-43,1938489938429/-25,2444441782922/9,71442669733306/37,3035663526315/40,1963111370327/28,0415594922041/-24,83114321955/0,34643155634905*36,3278868147571/-51,5399328558221/-27,4446213671543/-47,4951749931165/-17,4464073527741/7,68078265835197/56,9535434900735/32,7433302835722/-14,3371088634849/2,16050067193877/-5,79884980271252/-32,7143485960302/-10,8786069146916*10,4231393996152/-3,90500585127211/-1,92400563521028/9,91031899523126/60,2156345334141/-10,3859321118151/-30,412319138122/4,31874128569643/32,7501932554666/-22,3756642240608/30,0788767466189/-19,0102141906562/-51,3344052999411*1,14741244318928/9,14952372994278/44,5551997367202/-47,9242397946271/69,5645882527025/-17,4683449000263/-17,7855570377845/-56,7200138179194/-21,8782574206884/-4,83196254019554/30,0765109731667/-6,36986313581757/-30,5441035098477*-9,32998718435704/9,75699623784943/1,98249542596075/14,8086603920337/2,85112004715798/-7,8619727006726/-10,2393902940471/0,00379965354051965/-7,08007389617769/-2,76574194732644/-5,55451730362244/-8,38145794426099/12,2188637215418*16,6855057631406/-30,3870801266058/-4,90536048900125/2,3910632948016/-1,48696869025551/-26,5493361845494/-37,297840060482/-27,9537406794602/17,4150940663204/26,8049324259104/-32,5244319038278/-25,9455521756805/-35,6720289119179*-8,04255186555214/-11,4104103972595/-11,1304031345887/0,175004459734774/-11,6445874484024/-2,15760245568574/-10,0656159612135/-13,3346470963749/-1,60933110058784/-3,52491791343669/-13,6152126273089/3,32002473802325/1,79143559303205*-50,2515762879075/-71,4673817532852/40,8146808310461/25,3559754973484/8,02047359532614/11,6584744938403/-32,142762017787/-32,5745787371785/44,2392937164691/16,9295502588942/13,4720941065942/19,5747224573695/0,494859278139741*67,5692817879447/-56,2035446290605/-20,7892524369267/-19,4167613338071/-12,2921359536712/20,1100623784993/46,3105183359354/-16,5103551981988/65,0447802323198/46,8369123597721/18,3739873305221/26,7899907143185/-5,25170796061883*-1,64806529938545/-7,55497163585583/11,6419947252806/-39,1752739066498/-67,59536350554/-29,3663556812914/18,2197603176831/12,5126241938949/-30,961798321222/8,87643253444184/-27,5036521545116/45,5167511184812/-19,9467277555703*-8,70884672901816/-5,45201089654659/-30,5024424124476/24,0685151067791/55,5872932571446/23,1988646186821/30,7776784833841/5,88226291253644/-6,1151795983757/20,0423022709811/-12,5470495785039/49,7234411400986/1,01071200104537*15,2554266569336/-10,0631418785811/-29,6494032735778/-15,0788157648603/-49,9939217445104/-7,24176052828476/-17,9923923330381/-30,7907453786037/-36,9238121957087/-14,7599997829288/-6,62433150451755/8,10348744471795/-26,1651373154099*-27,1737133965188/26,8577865645877/19,6751392546841/-6,2226972203518/-2,32912541666311/60,5498019249093/-40,4333638101077/33,0456310967538/42,8826104236971/-77,0715640833535/28,398462698848/47,5717401023125/7,35633862064496*-32,3978919027452/-8,59791552971932/-49,4299522679948/50,9013640795147/-33,5136159822581/10,8116648755568/-3,99584268383988/-32,6722580889228/15,1874843317386/-36,2859368125301/48,1962143416805/-5,95658472596409/2,53303124080731*62,6118859941024/-53,5630248143605/-22,5134797339379/-0,99274587534417/-12,5913018617664/31,4992651232137/-20,2449299281048/58,4127243834257/-63,1871192822361/10,4368680364042/-39,0181162423146/8,76924865614156/27,0017491762074*19,0912789709527/-33,7354757765774/-20,8042745153506/-0,0159669347521949/-11,0013182590811/2,16606123491136/30,8950580456368/1,90552032598914/-45,9624838281895/-1,99916122991008/-15,6427896285239/-60,910753381688/-39,6991068941425*19,3884483482255/26,7736729979902/-15,5428402083831/-19,7615085629975/-9,35158291367683/8,25794134311329/5,19676795098861/4,53502881911555/6,08672072644452/-20,4676253579496/40,9647343232281/53,5789382845665/-7,01592030118077*-17,3579863147216/52,3733862698649/37,1482444051364/5,56710461466404/42,3142931737739/14,5116426367932/2,40439184457793/26,6830416842895/-3,57491026968774/17,110862786772/16,1166849824028/46,7571225160831/-68,4360240607107*25,1369158338223/-7,30952413689716/59,7412624795726/-28,3511800347922/13,8136705634565/-48,9588464094008/-0,177273873717966/-14,3915372056586/-16,5799503385279/-59,4618613125274/-35,4016142297569/0,0754960091267931/-41,0835582634411*-6,005692839905/-28,6863325203078/-24,7578462527623/-20,0380394503391/-8,23975117932465/-19,8534702820362/-9,95585715361227/-10,7966297487082/-7,02851165089173/-3,34324702532446/-23,2192156268946/-1,52793320757509/-9,97149187237502*7,13288310083587/-32,0767964171569/17,635636175881/48,3037036385765/-33,1315993103051/-58,8552877723741/-45,9221499244366/5,46472147292102/-24,1804162394433/-4,10128225172042/14,0758726813871/-43,8233237439273/2,82091344057341*8,7023274779084/-28,0153062595162/-35,4684769317034/-43,104432373131/-28,2151680957237/-40,4788065633368/17,8986012522863/47,8437988848553/-25,396659619206/-10,8646869079404/19,263129311954/-6,88383115356916/-12,5721564392141*1,22054632025575/-20,1516248563762/-12,948928955336/-16,6839703270685/-10,0670591411298/-34,597466278636/-4,77415397803617/-33,5580632470509/-26,8502163563522/-12,197074134329/5,55426683914439/-5,9723175751993/-4,74648641107333*-64,0237603139519/-46,865474327012/2,96263260508441/-15,7278281759156/-48,6644415414202/-7,69454013357591/-38,1035743696579/-64,4229694190623/14,6787748889174/14,9650582687389/6,72854667253575/4,15036136944518/2,00821011613843*-6,66889037511122/23,5361073590339/14,3395424810987/-0,747084237880948/10,7999525268566/4,08782170065215/10,5266974261474/17,1745295489121/22,6251185814626/23,5407324692554/4,8625520809763/18,0680966338619/1,47810173094108*36,003224324605/-19,465021947326/-21,0933480301671/22,7758797873532/3,13776094770325/4,19401381781693/8,97232084024196/-26,3478515740324/-10,830071417977/-9,07051071085416/-7,86006164108835/6,42849604881615/-24,5501220131795*-11,5449565547233/-44,161998642379/-3,03788742296887/15,1532820390283/3,51898267109337/-30,5732487171803/-33,3461141849345/-11,0349045535644/-43,1182393140502/-9,43217701305033/-30,6689159007366/-26,5024832045756/-63,3644645027002*-26,1323119273286/3,10226337160038/-20,4728941524511/-29,5054197718524/1,10087103406846/-23,2981965461447/-27,3065852136054/-13,2362546129688/-3,60375828412658/-23,7017366797316/-18,6491642411004/17,2530484086309/0,913902695837224*4,76465395305326/-34,1978417776135/-70,1456345263269/10,5809401341043/31,52992988896/-2,49592851893943/-12,1480016200988/25,0728383756846/4,82980476560283/12,4676468083538/18,1123296135286/-3,47064291511621/3,80545513717183*-43,4510794096997/-3,97611499139/-60,8859670435695/55,2740819374015/-32,1692305425406/-39,9904204173287/-25,0721714828853/-15,5932340107084/-20,4527290023805/-3,23837064338286/-33,2832623205766/2,27846492599189/-30,3220578877431*-7,10164645723749/62,8966051988212/-2,02831761751098/9,13406595286135/27,0948382306486/18,1604282189435/8,86912284297074/6,06194837941775/26,4873345859254/53,5374859699959/41,2648100245908/6,42016828456422/12,6484358538544*-25,4201981958098/-16,2286133587917/-42,9326233594651/7,83484989830945/0,818850560938258/39,4272609960214/44,9134861627274/-31,37417502677/-16,7558278669419/-13,8256365853635/-20,7961300901499/-51,7198997730856/-2,15779664474217*-12,7296887378115/30,1141689493854/-52,8009166858376/3,90706173422778/49,7717741706106/-12,758310959589/-10,0349711744573/9,26313127983744/-27,191608087757/-14,6645941462895/-48,5213579677515/60,9929989690314/15,123621626981*14,0859044393171/-53,6063032891965/34,4111456649508/66,6628430948405/-35,0702164052142/-41,3446503555154/23,1186894553034/54,9669478771114/53,4410250001871/-25,7605851787724/3,28428866220553/-19,4681891873307/-29,906043496168*19,1213421172826/-16,0902914061199/13,48883175759/22,0592584842071/-10,3721727763387/18,6867461083244/4,04457354114441/-21,7536799720333/-7,76930230709202/18,453641118139/-8,42459813705835/27,8581562841296/15,9381681573505*48,1766609638735/-19,9408757359103/-25,4142872279031/47,8344104293901/-28,6373903823533/4,38008889667952/34,7065364471585/1,86854291651405/11,1147974467607/41,7789213740336/-49,6970110254861/41,4663319997463/46,8801892095719*-15,1297250925312/38,2073025253711/9,05506700426966/20,411280850539/3,70676460157762/39,9388862885478/-18,8570797487369/18,7325830973191/-30,8760252573219/12,1802716485986/-1,21295507545777/50,1968148109993/-22,4697374669796*17,3796643575488/-30,6943335465746/22,2338492393299/-8,67336715543218/13,0279035823852/7,94082778711188/-21,2478008369677/-44,9338106605933/84,8845245846981/-25,8832342190931/17,5057819199198/13,7270612152251/22,3125923351192*-25,1755448514907/-30,5699631803437/-50,52412176628/13,3928148446725/-26,4959996145983/2,86077527077776/5,13615977505382/24,3550962624564/-16,8699589900384/39,7078662259646/19,169654276457/-24,3430948182357/-45,0127540368425*-16,8298618926507/-3,85068536957175/-14,5798353774478/-38,497655369908/-64,5609839293443/26,5136464975747/-0,0809456855332045/-61,9012576214427/-30,8006223292855/-10,2667494949406/10,1242028744722/-22,6406978990637/-18,2957217236387*8,54593505773567/-1,11231513363931/16,2418063017495/-40,5476025368623/38,7391941918891/-4,57538776547294/-6,86370953882752/22,8472519349631/-14,5248456362822/-12,9093817858083/-8,60297558919614/19,2525313580874/26,206707234093*-8,96445514802124/4,58128318189082/21,4401189386336/49,046132313841/9,85916776266157/-11,1392230612514/-27,1517973556559/2,41001882412834/56,9416289902152/1,21077984257992/29,5527894662566/41,6043260585203/33,2066088714548
2,80052467059134/-2,22166242542902/1,83825598556369/-3,28969016454853/-1,42981902635096/-1,56200968186661/2,46914933732081/2,13627327497539/2,49666401763318/-1,38845853882738/0,600821377792233/-2,75831684973702/0,609944592729316/-1,95093688092955/1,70698239409254/2,06065480381863/-2,40854084406343/3,14401041059264/-1,44685080044474/-2,75977897928278/2,64524948743519/-2,00666338851743/2,70084838437042/3,07222280853548/-2,30203357489294/-2,83736186110266/1,60714831946661/2,24562730501224/1,19837388003702/3,46404161600647/2,75267361473945/2,18704910360788/-1,2708901047537/1,46869374575217/-2,75322002058282/2,3243048454141/-3,06532455185272/-2,31119059157783/-0,868662641162413/2,06729487066086/2,45455526895492/0,860026627123795/1,47326344247237/2,21113772604836/1,54330267658359/2,58613823680532/1,29364593911423/-0,871173363446951/1,7301466778912/-1,37009161075693/-1,2701572043396/2,62099825901383/-1,25254565081386/-1,58865445682011/2,76161961844065/-2,70038489334656/-0,0943316620201139/-2,37185703170621/-2,13476053687077/-2,16748866737544/2,28822666272285/1,58414324914805/2,14739738740759/2,88025883427719*-3,34170548144548/2,64210260541112/-3,06299363539997/4,30650330305811/2,34484096401675/2,22345236680418/-3,39652339448516/-1,66990282382159/-3,37719455710688/2,61062111925608/0,0254788416825832/3,04968307971744/-1,94422301909328/2,43844890322924/-2,88387454856807/-3,88293640682199/2,81997745863577/-4,24285984135917/2,56553826348785/3,11691036789307/-3,26131119251724/2,717035592062/-2,69587182676337/-3,64101933966411/2,30988712079358/3,46583109084972/-0,892515292530265/-2,28009593400335/-1,27903806438952/-4,17431778735222/-3,74243760627343/-2,77755546900642/1,8407969640672/-2,10329585539398/3,61866801490952/-3,75985668356764/2,82218826684994/3,19800982426604/1,90071969046214/-3,20203891407174/-3,39652282074684/-0,903729348045158/-2,78466866914326/-2,70350313217147/-1,90449332614632/-3,246136144949/-1,99512008143911/1,74139438118869/-2,78824317867187/2,15754901108222/1,62447152399234/-3,72256807798635/1,79203021676821/2,65624164404402/-4,12611729814053/3,911539284683/0,757772648170645/2,56554445031162/2,36321341770627/2,47029569398624/-3,53043353025087/-2,96605644522619/-1,70926398222115/-3,65540976107783*-4,49310038392139/3,69108377771591/-4,26348684037996/5,25092822749824/3,10518885448438/2,69102283897142/-3,52691836579012/-2,95106270625794/-4,32982238952864/2,89726381780522/0,0615794193797245/3,7313663767266/-2,28215442999908/3,39697684830877/-3,31378562756449/-5,08993681791271/3,46964414192535/-5,25621143536405/2,78184774689363/3,67488336220623/-3,65305444565378/3,1848518295113/-4,72060640020923/-4,45890063489275/2,8964084581841/4,51218852084183/-1,21660783040859/-2,94240490815061/-0,000119106033252965/-5,51585519831639/-5,28271931315121/-3,49969670014004/2,27815237034224/-2,60861589078821/4,04603969159293/-4,23094133424982/3,48660994943524/4,018023126036/2,96795877638922/-3,67520636054602/-4,27060874532143/-1,24242561551551/-3,80116465892933/-3,88484752273502/-2,508102081749/-3,77871223057316/-1,65642764167774/1,96596645646272/-3,54428189322312/2,48165276082114/1,75010317161795/-4,40378283765997/3,03220595580353/3,63208055630838/-4,86843099520789/4,26981314214455/1,63493307593422/3,78146657037116/2,50599126671198/3,48322324224226/-3,87018089203675/-3,66742204003645/-2,84335270215818/-3,96682515281894*-3,85545288147192/3,04843821737193/-4,12185099530664/4,58421048781077/2,7369770697888/2,36220343659197/-2,89839790340898/-2,93371769293688/-4,11286009132037/2,98230488491059/0,894148591253925/3,41455085114358/-1,29837875140758/3,55996441140702/-3,38555749365281/-3,56399686242072/2,39546422252686/-4,80565675932782/2,48061428409878/3,72993938267643/-3,14008636955311/3,0885584225617/-4,32388861854522/-4,30504756968706/3,25867788245876/3,75241777152522/-1,07566449220016/-2,16443150134283/-1,2203809201884/-4,80103406414024/-4,74660879511495/-2,9455689626036/2,30241625769324/-2,44675524669409/4,00161713692592/-4,37958967101108/3,36259785179633/3,8088776186583/2,68540836397631/-3,81081229691196/-3,80445366616747/-1,49831536759526/-3,47205090037633/-3,65600160196155/-1,6328424288737/-3,57440602985247/-2,42698970892544/2,31775684468894/-2,92883151297248/2,00355782944718/1,88310142300365/-4,0058142530254/2,39943304844353/3,25879493680579/-4,48874501417826/3,87512475649611/0,311855168441881/3,03193417425111/2,56580502148848/2,82945881926153/-3,41540450988102/-2,86902989436178/-2,80697637067878/-4,06808277467799*3,51029826856087/-2,56142214348202/3,37126548065473/-4,21901251603361/-2,70434391551319/-2,74549388522798/3,25412723754929/1,54978056677937/3,31876719292285/-2,68352997757585/0,0178847146262534/-3,35593822478327/2,13739336148897/-2,40019748730573/2,56508407465831/3,98295120203541/-3,14743247189262/4,12499991552538/-2,41936946746947/-3,20281702178731/2,66293997682829/-2,60048635295628/3,43932624115373/3,50217681247049/-2,70311699398938/-3,67361515876303/1,77200183509916/2,90277927985644/-0,256033647059559/4,08152980177295/4,69304093798735/2,55283518514909/-2,08336672295916/2,82653658472051/-3,6925413527923/3,66830567592453/-2,77717675111902/-2,40656959124902/-1,53018105738165/3,08330389760187/3,65411139781692/1,57713112299943/3,16475978558014/3,20511825358645/2,33436273151361/3,0843502085029/1,60528453360736/-2,07669948812683/2,90680038014386/-2,22295940751756/-1,83657092292544/4,1051453448392/-2,22995233306763/-2,91372019457156/4,02756573170925/-3,53653969236963/-0,706867585070401/-3,01372433110682/-1,55853966991486/-2,53024010005108/2,64080381037944/2,8214803616979/1,5872019195679/3,76243712653456*-3,79561614605791/2,65662608547345/-3,07559965961401/3,78450957885387/2,32721362989239/1,5819022685888/-2,94860232177499/-2,44597519918837/-2,94226002759635/2,09547680929637/0,695780015977143/2,76379668402301/-1,24894003751516/3,00939376779889/-2,38654238468072/-3,02311835179937/2,08185818413262/-3,78847248229213/2,06892617748839/3,3770384356299/-3,10562675930177/2,66670256411567/-3,56110816477854/-3,59443505729799/2,28509741815645/3,40993694420854/-1,04010337985426/-2,26600091566148/0,292970082184013/-3,94291977957809/-3,99624169034255/-2,37284249446101/1,90730141622396/-0,911867401864566/2,89163302259567/-3,29135404875592/3,06674287294602/2,88973254457463/2,00906024441796/-3,11909400660461/-2,7889237957963/-1,50258169837659/-2,79305221219078/-3,28903302009933/-1,06082832749028/-3,12014852245133/-1,84715430890815/1,90270094101338/-1,8124502967557/0,922413057306815/1,28865993308213/-2,64176511112881/1,98244430637221/1,94880825051725/-3,49102959913597/3,1900088653323/0,372106421049505/2,24109913596608/2,22503540465504/2,55468701968304/-3,19669018982671/-2,40655311667649/-2,15842746278619/-3,29496489283642*3,76275202579902/-3,56046532538835/4,48863328415785/-4,8009874431934/-3,07168241134175/-1,4438020189631/3,52556877929452/2,51510061116834/3,51247521340212/-2,62450591568105/-1,11644215367512/-3,77034724775743/2,0591187699466/-3,62357128987925/2,87281182496945/3,93578140993462/-3,21105896061443/4,83552868791945/-2,36091661986076/-3,68140400113736/3,72865961162426/-2,60455522131578/4,50439493356147/4,16012183592824/-3,09068803818993/-4,69981631979626/0,447472451852103/3,24926358402701/1,10816837874563/5,26139050642857/5,43164870449576/3,00975964859349/-1,61826845494581/3,14560494195664/-3,50732797317563/4,3422001308881/-3,39984269177983/-3,05970711284715/-2,12936172097148/3,61151144116396/4,02199962330764/1,98165263528546/3,28868971799356/3,4160532608562/2,57883834876204/3,4123033209031/1,96589402039264/-2,05568609705476/3,34336895120271/-1,73174646572524/-2,3300705914088/3,94337107097561/-2,29278198692296/-3,22244740683488/4,38409370420446/-4,01336598957432/-1,29906229524271/-3,55459952149279/-1,94145397159163/-3,22961415063541/3,64071039721208/3,87571054582913/3,18969369285581/3,65908110946709*3,31258513746929/-2,47352539873304/3,45537543439971/-3,89829710783528/-2,73508034961309/-1,58020894326985/3,1909413290835/2,16692485901189/3,86804519459173/-1,77500229519558/-1,00088256352029/-3,44153905983148/0,716908630696773/-2,99324626455452/2,78153051780859/3,94880436396678/-2,60122374165021/4,17090769985464/-2,59981774229973/-3,3066592991118/3,31381211872681/-2,72647293559041/3,31953388331226/3,12719225516702/-2,56026854990304/-3,7096384405225/1,53731469979146/1,7893100126574/-0,0859991028598694/4,32494380237611/4,62910931872052/2,99765275690044/-0,866011738796005/1,80009063143045/-3,44842786368433/3,09595551831498/-3,26736891902782/-2,75055195818584/-2,34721396875058/3,17263209970381/3,59225652515553/1,50661870194435/3,25208012035988/3,49320192764715/1,73134872705024/2,99441175972863/1,62564740810189/-0,876677436694424/2,80798267062997/-0,895714387624563/-1,41544213027667/3,18328335109598/-2,00289320258186/-2,50023457066612/3,64432061167374/-3,57374121414031/-0,680783006916926/-3,08323969603292/-1,86487631471144/-2,32726401184007/2,59270480127075/3,19579568854261/2,16425394904068/3,78913514720702*2,22751186130776/-1,26596845221448/0,719709481361593/-1,72335179415309/-1,35517203187998/-0,854797313272096/1,81087682416109/1,63897237357539/1,72054805409541/-1,24273871085004/-0,309607304327347/-2,27217308520478/0,679521645318078/-1,81668828734038/1,32594673531592/2,28085627439045/-2,07273033548743/2,36594738528361/-1,03779450251474/-1,84780402177053/1,8993889255892/-0,652163763104558/1,06206949559256/1,36114789186539/-1,92286636559684/-1,16244321731361/0,875008210741229/1,49982003808059/-0,278764300193966/1,98584861366123/2,40421853225308/0,747646858780445/-1,49561527196146/-0,0234723814421156/-2,32734201680599/2,40264710070843/-1,76101518795327/-1,23576707882296/-0,900557157362389/1,82346014367123/2,20318011912603/0,979438978849664/1,42851127270448/1,88947077169188/0,206182564471442/0,921785652867343/0,83275210496503/-1,4780122011912/1,51396072571737/-0,629117329469318/-0,638874282270566/1,15408471645347/0,0288961284363705/-1,59466728256967/1,94420233306067/-2,09432022306351/-0,714180680229724/-0,749857044167947/-0,762923824505168/-1,68736703749032/2,17737240461643/0,672575865152042/1,07592894302328/1,03882989404668*3,55083011383527/-3,10375769900115/4,07517910071199/-4,14133268490563/-2,47815435135763/-1,65128537621432/2,83989821110773/2,14310134072436/3,21230262016894/-1,69105752667421/-0,869813198464164/-2,74638391814281/1,22314170380057/-3,01972573052238/3,19570201652609/3,96220546301654/-2,69537455021893/4,27210518042212/-2,84845399008335/-3,28723537021926/3,39076876866452/-2,35580062205432/3,20119169202016/3,79236725072885/-2,57004618699891/-3,41393206253349/1,76326750012937/2,14058330769583/1,56436729767198/4,33179999324788/4,53616725917461/3,14454820419863/-1,89397343349392/2,00863847509402/-3,64067382958375/3,92181169687088/-3,01209740979359/-3,38398772053982/-1,80444341017064/3,03753560361492/3,12379745862251/0,812566973284195/3,62729111270633/2,50626699667077/1,12191675192014/3,36194079254608/2,24390814370059/-0,88106387559874/3,62390657642039/-1,39728489563662/-1,23328428367819/3,60520001994575/-2,47039106911857/-3,4157777822637/3,64065941545227/-3,84006902219755/-0,942904023996942/-3,50595976077884/-2,1681362175334/-3,05909953139151/3,46629084318282/3,6644267250459/2,22757719370845/3,96329533733335
0,783846166311324/-1,50346873324649/-2,20400639884678/-1,84574567333814/1,29013747104441/-1,34229572246075/1,6972555984279/1,23562577378738/0,438178344610098/1,34184110587265
